//Numpy array shape (784, 15)
//Min -1.3564519882202148
//Max 1.21009361743927
//Number of zeros 0

weight_default_t w1[11760] = {-0.05168737843632698, 0.009966574609279633, -0.05381886661052704, -0.00524526834487915, -0.009967468678951263, 0.08329223096370697, -0.08024958521127701, 0.045309215784072876, 0.016522035002708435, 0.07897929847240448, 0.07204820215702057, -0.04395914822816849, 0.03902563452720642, -0.05587124824523926, 0.0019105225801467896, -0.05554623901844025, -0.017325975000858307, -0.02810356393456459, 0.025307461619377136, -0.07325660437345505, 0.05686338245868683, -0.011111892759799957, -0.047216739505529404, 0.012810714542865753, 0.0055947378277778625, 0.05173979699611664, -0.04037244990468025, 0.006315216422080994, 0.043258920311927795, 0.08334578573703766, -0.06338866055011749, -0.045175950974226, 0.008460894227027893, -0.01341959834098816, 0.01613243669271469, -0.08634885400533676, -0.0038055777549743652, -0.08264774084091187, -0.07790669798851013, -0.06989686191082001, -0.06668100506067276, -0.08664973825216293, -0.05228593572974205, 0.07543180882930756, -0.07832536101341248, 0.02408789098262787, -0.07492176443338394, 0.05150480568408966, 0.07532766461372375, -0.013346172869205475, -0.06978265196084976, -0.05956781655550003, -0.021773017942905426, -0.0685601457953453, -0.06506656855344772, -0.06175777316093445, 0.040851444005966187, 0.04430277645587921, -0.021745912730693817, 0.05024044215679169, 0.04544408619403839, -0.006626158952713013, 0.04921771585941315, -0.05097194388508797, 0.08508498966693878, -0.03647403046488762, -0.06039690598845482, -0.030311953276395798, -0.06604589521884918, 0.07049313187599182, 0.009413763880729675, -0.04397615045309067, 0.04876634478569031, 0.0108395516872406, -0.009168252348899841, -0.08401472866535187, -0.014267511665821075, -0.030527565628290176, 0.06797951459884644, -0.05524153634905815, -0.05896653234958649, -0.055201638489961624, 0.07661458849906921, 0.08307458460330963, 0.003367692232131958, 0.08203327655792236, -0.03264010697603226, -0.06534911692142487, -0.06322897225618362, 0.03051745891571045, -0.02798418700695038, 0.01531931757926941, -0.0531124621629715, -0.02703816071152687, -0.07361698150634766, -0.06251021474599838, 0.04192523658275604, 0.01210496574640274, -0.008260078728199005, -0.0337379090487957, 0.045250967144966125, -0.05747959017753601, 0.03196198493242264, 0.035656094551086426, 0.07390910387039185, -0.012169018387794495, -0.05010095611214638, 0.06591817736625671, 0.04294306039810181, 0.0784989595413208, -0.08024099469184875, -0.00990036129951477, -0.05547235533595085, -0.0177924707531929, 0.040323421359062195, 0.03267167508602142, 0.04733888804912567, 0.07760798931121826, -0.07459256052970886, -0.022840075194835663, 0.05357937514781952, 0.031703025102615356, 0.010114714503288269, 0.05449548363685608, -0.024845868349075317, 0.082966148853302, 0.011165201663970947, 0.07781150937080383, 0.006088569760322571, -0.08215023577213287, -0.04872382804751396, 0.025370292365550995, -0.03400230035185814, -0.06638190150260925, -0.011774398386478424, -0.05260233208537102, -0.034061577171087265, -0.002488464117050171, -0.033332690596580505, 0.0145343616604805, 0.025456756353378296, -0.07107771933078766, -0.08502209931612015, -0.0004794895648956299, 0.037354543805122375, 0.02337861806154251, 0.047926053404808044, 0.02282470464706421, 0.06389759480953217, -0.014156170189380646, -0.034199755638837814, 0.08197057247161865, 0.06098116934299469, -0.05524376779794693, 0.00939369946718216, -0.05696074292063713, -0.058007657527923584, 0.061842337250709534, 0.0819263756275177, 0.03469818830490112, -0.0567021518945694, -0.05181450396776199, -0.028528984636068344, -0.08280552923679352, 0.08622176945209503, -0.009312279522418976, -0.02024632692337036, -0.06213846802711487, -0.051661014556884766, 0.038711175322532654, -0.0009383857250213623, 0.02184028923511505, 0.03521842509508133, 0.020548589527606964, -0.0009472891688346863, -0.056752029806375504, 0.013871118426322937, -0.048897478729486465, 0.008051447570323944, -0.06476322561502457, -0.07404239475727081, 0.09071806818246841, 0.08885453641414642, -0.06373918801546097, 0.09487719088792801, -0.05162598937749863, -0.0305080134421587, 0.06756716221570969, 0.04781067371368408, 0.0820988118648529, 0.027881329879164696, 0.03696456551551819, 0.07631716877222061, -0.011509557254612446, -0.05151192843914032, 0.0898314118385315, 0.10301218926906586, -0.049838509410619736, 0.01922927051782608, 0.06611268222332001, -0.06907062977552414, 0.11279230564832687, 0.03687469661235809, -0.06690075248479843, 0.007524999789893627, -0.021925432607531548, -0.029002007097005844, -0.024537229910492897, 0.13071836531162262, -0.04095497727394104, 0.0899195522069931, 0.02882162481546402, -0.046159349381923676, -0.04253305122256279, -0.0354238860309124, 0.08594956994056702, 0.06434138864278793, 0.006467007100582123, -0.07234536856412888, -0.034752581268548965, -0.042399387806653976, -0.01551499217748642, 0.035385970026254654, 0.07084798812866211, -0.08460184186697006, -0.007300659082829952, -0.0009324103593826294, 0.0849829837679863, 0.04529885947704315, 0.008385135792195797, -0.07869244366884232, -0.013307756744325161, -0.04401920363306999, 0.06914736330509186, -0.04189465194940567, 0.041979532688856125, 0.014019867405295372, -0.04696745425462723, -0.02071424573659897, -0.026670876890420914, -0.014395996928215027, 0.08043920993804932, -0.03112040087580681, 0.058389440178871155, -0.0061034634709358215, -0.033458393067121506, -0.08178848773241043, 0.055167749524116516, 0.008958034217357635, -0.027044419199228287, -0.061690960079431534, -0.02455868571996689, -0.08134573698043823, -0.020209982991218567, 0.04822477698326111, -0.026692219078540802, 0.037250347435474396, 0.08467361330986023, -0.06784380227327347, 0.023604683578014374, 0.019304677844047546, -0.07931746542453766, -0.0817163810133934, -0.03449305146932602, -0.05876048654317856, -0.06625702977180481, -0.05849111080169678, -0.0090169757604599, -0.0243399515748024, 0.004010505974292755, -0.07858767360448837, 0.0727633535861969, 0.07599055767059326, -0.01150204986333847, -0.012001439929008484, -0.03830953314900398, -0.02111632376909256, -0.04307977110147476, -0.03592485189437866, -0.031135421246290207, 0.04014284908771515, 0.07117030024528503, 0.03947451710700989, 0.02205367386341095, 0.07791534066200256, -0.037962477654218674, 0.021568872034549713, 0.05139623582363129, -0.08553348481655121, 0.02454312890768051, -0.055891476571559906, 0.05944928526878357, 0.08031542599201202, -0.00843009352684021, 0.0664210170507431, 0.012920379638671875, -0.04889921471476555, 0.08247755467891693, -0.06957697868347168, -0.05511432886123657, 0.010198183357715607, -0.08512649685144424, 0.016990594565868378, 0.032871030271053314, -0.021308444440364838, 0.02497873455286026, -0.030950527638196945, -0.02556566148996353, 0.08646814525127411, 0.054468587040901184, 0.05607089400291443, 0.060676321387290955, -0.037063680589199066, -0.0791955292224884, -0.07102486491203308, -0.04881475493311882, -0.010336630046367645, -0.014052890241146088, 0.06472180783748627, -0.0234924778342247, -0.05829911306500435, -0.04008547589182854, -0.0641133263707161, 0.04828600585460663, 0.08037668466567993, -0.08171198517084122, -0.017283640801906586, -0.019230365753173828, -0.018811412155628204, 0.03319918364286423, 0.023603983223438263, 0.04556511342525482, -0.024408463388681412, -0.04590502381324768, -0.07200085371732712, -0.056520380079746246, 0.04004193842411041, 0.08543190360069275, 0.010521374642848969, 0.07301265001296997, 0.008945509791374207, -0.06741005182266235, -0.05650831758975983, -0.07550682872533798, 0.05548791587352753, -0.0835479199886322, 0.0722794383764267, 0.0443943589925766, 0.06549106538295746, 0.02880755066871643, 0.05594030022621155, 0.022110305726528168, -0.06567423790693283, 0.033035799860954285, 0.05439354479312897, -0.03785388544201851, -0.036552704870700836, 0.02602953463792801, 0.025517001748085022, -0.06046678125858307, 0.04842241108417511, 0.07221785187721252, 0.05581812560558319, 0.05160306394100189, 0.034344419836997986, -0.0016115233302116394, -0.053558606654405594, -0.08430538326501846, 0.016174376010894775, -0.015040770173072815, 0.05732126533985138, -0.07949568331241608, 0.004882320761680603, 0.019010409712791443, 0.03867226839065552, -0.07706750929355621, -0.05366354063153267, 0.019997119903564453, 0.0628127008676529, 0.029094837605953217, -0.0631004050374031, -0.007562123239040375, 0.06580698490142822, -0.05814170092344284, -0.011608041822910309, 0.061831995844841, -0.04934343695640564, -0.039180293679237366, -0.05336416885256767, -0.03451342508196831, -0.026092134416103363, 0.002456255257129669, 0.02822823077440262, 0.042091429233551025, -0.0336049385368824, -0.0037962347269058228, 0.01861366629600525, -0.05187474936246872, -0.06519272178411484, 0.026412375271320343, -0.019457362592220306, 0.06337237358093262, 0.07987634837627411, -0.08232045918703079, -0.08548294752836227, 0.024894483387470245, 0.03304222226142883, -0.028795920312404633, -0.030573226511478424, -0.014397300779819489, 0.01903456449508667, 0.03137285262346268, 0.027733244001865387, -0.03629002720117569, 0.05574306845664978, -0.06297390162944794, -0.0260007306933403, -0.02285464107990265, -0.0033795908093452454, 0.015285313129425049, -0.016370117664337158, -0.07823098450899124, -0.013611555099487305, 0.04474751651287079, 0.08542416989803314, -0.07531090080738068, 0.034649886190891266, 0.06638017296791077, 0.07050929963588715, -0.052471697330474854, 0.01803918182849884, 0.0051125213503837585, 0.07615508139133453, 0.02063584327697754, 0.040457651019096375, 0.06493896245956421, -0.06574416905641556, -0.024181339889764786, 0.007138244807720184, -0.08457626402378082, -0.0021514296531677246, -0.06613372266292572, -0.054609011858701706, 0.0712704062461853, 0.050930753350257874, 0.04067087173461914, 0.07123300433158875, -0.04854625090956688, -0.01732531189918518, 0.04034227132797241, -0.06428852677345276, 0.010748907923698425, 0.02753560245037079, -0.012607946991920471, -0.014996349811553955, 0.02032995969057083, -0.06268931925296783, 0.07637181878089905, -0.0768866240978241, 0.04830053448677063, -0.03466060757637024, -0.08276060968637466, -0.022352442145347595, -0.007273286581039429, -0.06648179888725281, 0.001828417181968689, -0.04409075528383255, -0.007069818675518036, 0.08494910597801208, -0.08064623177051544, 0.04926368594169617, -0.08576521277427673, 0.027794525027275085, 0.029286958277225494, 0.010741181671619415, -0.08307413756847382, 0.025823548436164856, 0.0720415711402893, 0.062061116099357605, -0.01865585893392563, -0.04059436544775963, 0.020690226927399635, -0.041566114872694016, 0.015358798205852509, 0.08590986579656601, 0.03818121179938316, 0.010446121916174889, -0.04630563035607338, 0.004010587930679321, -0.059214502573013306, -0.010539457201957703, -0.014163549058139324, 0.03580550476908684, 0.07071506977081299, -0.07734780758619308, -0.07245681434869766, 0.014237677678465843, 0.017120547592639923, -0.03925907239317894, 0.05642073601484299, 0.04046863317489624, -0.06051319092512131, -0.05742853879928589, -0.08654198795557022, -0.0526869110763073, -0.052871234714984894, 0.03643164038658142, 0.10166231542825699, 0.061377763748168945, 0.019114606082439423, -0.017936594784259796, 0.23747272789478302, -0.04996812343597412, 0.021232768893241882, 0.07829803973436356, -0.1070840060710907, 0.09055176377296448, -0.08951537311077118, 0.01054212637245655, -0.05584161356091499, -0.0635848194360733, 0.10797338932752609, 0.12054234743118286, 0.004898973740637302, 0.04870196804404259, -0.04208364710211754, 0.2619604468345642, -0.07584328204393387, 0.006866816431283951, 0.2171424925327301, -0.013820436783134937, 0.10571908950805664, -0.07820611447095871, -0.0769866332411766, -0.02214653789997101, 0.015024878084659576, 0.16467218101024628, 0.12505263090133667, -0.05892917141318321, 0.013285120949149132, -0.04538067802786827, 0.31175389885902405, -0.06425494700670242, -0.06506123393774033, 0.18864485621452332, -0.09594102203845978, 0.16144049167633057, 0.06071222946047783, -0.11736541986465454, 0.09264349192380905, 0.017699096351861954, 0.2191031128168106, 0.2250700145959854, -0.04664628952741623, -0.04503348842263222, 0.01712445169687271, 0.2543785870075226, 0.003822274971753359, -0.012279920279979706, 0.3373218774795532, -0.12736286222934723, 0.09489969909191132, -0.011604947969317436, 0.030366376042366028, 0.1031016856431961, -0.01783948577940464, 0.4529280662536621, 0.33502197265625, 0.08640480041503906, -0.058463700115680695, 0.08533275127410889, 0.4735778272151947, -0.00971943885087967, 0.021818162873387337, 0.47582727670669556, -0.060982149094343185, 0.21088755130767822, -0.023372214287519455, -0.04720284044742584, 0.0672193095088005, 0.08073028922080994, 0.5383251309394836, 0.43280231952667236, 0.09574096649885178, 0.016403768211603165, -0.06154140084981918, 0.5233830809593201, -0.17376470565795898, 0.08051396161317825, 0.44666942954063416, -0.11311931908130646, 0.3378141522407532, 0.06776807457208633, -0.18372613191604614, 0.1391211301088333, 0.0637407898902893, 0.5271924138069153, 0.5437007546424866, 0.3943670392036438, -0.016435420140624046, -0.04494393244385719, 0.7420099377632141, -0.11237509548664093, -0.023117616772651672, 0.4686715006828308, -0.18115150928497314, 0.3255716860294342, 0.047034814953804016, -0.12018649280071259, 0.08161938190460205, 0.0603271946310997, 0.4358810484409332, 0.49116525053977966, 0.40664544701576233, -0.05416563153266907, -0.06680188328027725, 0.6516624093055725, 0.005588105879724026, 0.055594298988580704, 0.514572024345398, -0.11714388430118561, 0.39714881777763367, 0.03518500551581383, -0.11910879611968994, 0.12374799698591232, 0.03635551407933235, 0.3699077069759369, 0.46837151050567627, 0.467656672000885, 0.05633964762091637, -0.04598511755466461, 0.5013173222541809, 0.09432914853096008, 0.08626095205545425, 0.4685226380825043, -0.15090098977088928, 0.37462666630744934, 0.04431900382041931, -0.02022949978709221, 0.08297666162252426, 0.01603110507130623, 0.26971739530563354, 0.2604351043701172, 0.30491510033607483, 0.15277524292469025, 0.027779793366789818, 0.3918377459049225, 0.15626877546310425, 0.07696352899074554, 0.04496443644165993, -0.10560024529695511, 0.3196864724159241, 0.0005085791926831007, 0.020734436810016632, 0.17415548861026764, 0.12411762773990631, 0.10258641839027405, 0.20406992733478546, 0.2985050082206726, 0.05326874554157257, -0.07967545837163925, 0.28878989815711975, 0.23893553018569946, 0.093653604388237, -0.10659129172563553, -0.17784957587718964, 0.3857434391975403, 0.05092930421233177, -0.008049873635172844, 0.2318723499774933, 0.1644705981016159, 0.07035095989704132, 0.08050232380628586, 0.31044766306877136, 0.001876399852335453, 0.007889621891081333, 0.2950102686882019, 0.17833223938941956, -0.0907776728272438, 0.17409183084964752, -0.027347564697265625, 0.2780134975910187, -0.07629925012588501, -0.17130103707313538, 0.11831098049879074, 0.1559905856847763, 0.3653408885002136, 0.35427001118659973, 0.2258169949054718, -0.07037820667028427, -0.061794526875019073, 0.49212580919265747, -0.02708180993795395, -0.044746872037649155, 0.4391248822212219, -0.02751210145652294, 0.2760806977748871, -0.01700485311448574, -0.00563023891299963, 0.09175404161214828, 0.10288309305906296, 0.5454367399215698, 0.48917827010154724, 0.2902672588825226, -0.07430878281593323, -0.02883811667561531, 0.5967634916305542, -0.13383819162845612, -0.038409240543842316, 0.3473292291164398, -0.06110202521085739, 0.40434539318084717, 0.012973802164196968, -0.055089205503463745, 0.1273910403251648, -0.07925451546907425, 0.39563846588134766, 0.3799893856048584, 0.2814246714115143, 0.05985627695918083, 0.03456435352563858, 0.4590982496738434, -0.07206040620803833, 0.060574695467948914, 0.29818859696388245, -0.17087915539741516, 0.23916377127170563, 0.08258870244026184, -0.12402752786874771, 0.06988571584224701, -0.004007332026958466, 0.3308461606502533, 0.36617401242256165, 0.2850775122642517, 0.0986485704779625, -0.109084352850914, 0.18832190334796906, -0.07022867351770401, -0.03788020461797714, 0.2265763282775879, -0.10682866722345352, 0.18682938814163208, 0.0645095482468605, -0.0037056184373795986, -0.03035389818251133, 0.04492877423763275, 0.26436182856559753, 0.15304313600063324, 0.12654796242713928, -0.02821652777493, -0.068038210272789, 0.231516495347023, -0.0734034925699234, 0.06274210661649704, 0.026713261380791664, -0.012060807086527348, 0.0529700443148613, -0.07983052730560303, -0.14183376729488373, 0.05874298885464668, -0.048174623399972916, 0.08858336508274078, 0.08873535692691803, 0.1562754362821579, 0.07913672924041748, -0.024871114641427994, 0.14333191514015198, -0.11093802005052567, 0.0581972599029541, -0.07420916855335236, -0.00827152468264103, 0.14020155370235443, -0.015137940645217896, -0.1353216916322708, -0.05393316224217415, 0.08435076475143433, 0.11935117840766907, -0.0035436605103313923, 0.021346140652894974, 0.0069839730858802795, -0.023916490375995636, -0.052753958851099014, 0.07327395677566528, -0.02010839432477951, -0.047815918922424316, 0.04312169551849365, 0.07746179401874542, -0.002131238579750061, 0.08561210334300995, -0.02219102531671524, -0.03552841395139694, 0.05372600257396698, -0.0644473060965538, -0.0341525673866272, 0.05721214413642883, 0.0530453622341156, 0.006030239164829254, -0.08561885356903076, 0.06102330982685089, 0.008480958640575409, -0.07332943379878998, -0.07196389138698578, -0.02153075486421585, 0.06164295971393585, -0.04083225131034851, -0.07037410140037537, -0.028770051896572113, -0.00283890962600708, -0.026443280279636383, 0.07087774574756622, 0.08584287762641907, -0.05334950238466263, 0.02622954547405243, 0.01255381852388382, 0.01869913935661316, 0.04190033674240112, -0.043328482657670975, 0.021866612136363983, 0.02196822315454483, -0.012852050364017487, -0.05568137764930725, 0.04542571306228638, 0.027422986924648285, 0.054181456565856934, -0.06572958827018738, -0.003363996744155884, 0.07640856504440308, -0.05631138011813164, -0.0018525272607803345, 0.008478522300720215, -0.0013950839638710022, -0.05642896145582199, 0.07622586190700531, -0.04636767506599426, 0.02490716427564621, -0.040610481053590775, 0.01783464103937149, -0.042372703552246094, -0.07655060291290283, -0.01954091340303421, 0.028364218771457672, -0.00849892944097519, 0.027607545256614685, 0.01849457621574402, 0.03244548290967941, -0.013806819915771484, -0.042184095829725266, -0.08086473494768143, 0.004085049033164978, 0.021162644028663635, 0.025436222553253174, -0.010615378618240356, 0.08437761664390564, 0.024807393550872803, -0.033933211117982864, 0.05703115463256836, 0.04773011803627014, -0.0008834674954414368, 0.008993424475193024, 0.05235986411571503, 0.055065035820007324, 0.07516668736934662, 0.0758628249168396, 0.05189989507198334, -0.08459246158599854, -0.08570548892021179, -0.043043699115514755, 0.049311161041259766, -0.013060413300991058, -0.047553714364767075, 0.05885716900229454, 0.03430330008268356, 0.0008896216750144958, -0.013624320738017559, 0.03781971335411072, 0.06031486392021179, 0.05189325287938118, -0.04832553118467331, 0.01309909112751484, -0.043477997183799744, 0.06356187164783478, 0.023276636376976967, 0.0626162737607956, 0.016872450709342957, -0.07482562959194183, -0.10707295686006546, 0.07968824356794357, 0.08150449395179749, -0.08324985206127167, -0.005018665920943022, 0.016475319862365723, 0.033818066120147705, 0.010727405548095703, 0.025513676926493645, -0.009250637143850327, 0.030997250229120255, 0.03939732909202576, 0.16017240285873413, 0.0754791647195816, -0.006247073411941528, 0.014698097482323647, 0.1266261339187622, -0.07943032681941986, -0.08112559467554092, 0.14854001998901367, -0.08347488939762115, 0.061697766184806824, -0.07356079667806625, -0.10552702844142914, 0.1652221381664276, 0.021087709814310074, 0.06392940878868103, 0.13243025541305542, 0.06988577544689178, -0.027680592611432076, -0.05836928263306618, 0.27461591362953186, 0.024334073066711426, 0.09122396260499954, 0.13847458362579346, -0.06791433691978455, 0.02041124925017357, 0.0404028445482254, -0.05820236727595329, -0.0021637468598783016, -0.10909626632928848, 0.15391625463962555, 0.19400231540203094, 0.13413748145103455, -0.06216619163751602, -0.10012087970972061, 0.4092332422733307, 0.03632126376032829, 0.03883497789502144, 0.3307592272758484, -0.0751071572303772, 0.09032580256462097, 0.05413948372006416, -0.03538178652524948, 0.06524431705474854, -0.07788917422294617, 0.41613906621932983, 0.3565201163291931, 0.006337089464068413, 0.06826837360858917, -0.052799273282289505, 0.4735416769981384, 0.00477304682135582, -0.0944090187549591, 0.3475637435913086, -0.107223279774189, 0.2606048285961151, 0.007228966802358627, -0.13657428324222565, 0.1671402007341385, -0.062074728310108185, 0.6358179450035095, 0.45767202973365784, 0.11651752144098282, 0.05899156630039215, -0.004022673238068819, 0.5046396851539612, -0.06689384579658508, 0.04218659549951553, 0.28690773248672485, -0.20578721165657043, 0.41243746876716614, -0.0460318922996521, -0.04294319823384285, 0.0749712586402893, 0.03338304162025452, 0.7686648964881897, 0.4261513352394104, 0.04388386383652687, 0.04273321107029915, 0.0505182184278965, 0.35962149500846863, -0.06170085445046425, 0.048020489513874054, 0.3358636498451233, -0.352977454662323, 0.459918349981308, -0.05146367475390434, -0.20898206532001495, 0.004651127383112907, 0.01922617480158806, 0.9514396786689758, 0.5665031671524048, 0.08112494647502899, -7.520080544054508e-06, 0.1556844860315323, 0.6595562100410461, -0.00983353704214096, 0.04235732927918434, 0.3716086447238922, -0.2153710275888443, 0.4753390848636627, 0.0013864210341125727, -0.14906808733940125, 0.0701030045747757, -0.0997605174779892, 1.0401959419250488, 0.531263530254364, 0.2708366811275482, -0.013679862953722477, 0.15785038471221924, 0.6326497793197632, -0.12565970420837402, 0.00474491436034441, 0.3640187084674835, -0.32735201716423035, 0.5883316993713379, -0.11681900918483734, -0.2241828739643097, 0.044111110270023346, -0.06611958146095276, 0.9200888872146606, 0.7949709892272949, 0.3320978283882141, 0.0003290935419499874, 0.24477070569992065, 0.4784267544746399, -0.029954934492707253, -0.044041138142347336, 0.32078543305397034, -0.2968386113643646, 0.7201700210571289, 0.022123392671346664, -0.2197081744670868, -0.15174511075019836, 0.07503565400838852, 0.899020791053772, 0.7723470330238342, 0.4223436713218689, -0.05324411392211914, 0.08353711664676666, 0.34604206681251526, 0.07086854428052902, 0.11792024224996567, 0.35114145278930664, -0.3582807183265686, 0.5348293781280518, 0.028051871806383133, -0.1998540610074997, -0.09816056489944458, -0.0304105244576931, 0.7088329792022705, 0.5704779028892517, 0.41219499707221985, -0.07744506746530533, 0.08969469368457794, 0.43904590606689453, 0.029096614569425583, 0.2542431652545929, 0.21123282611370087, -0.37452277541160583, 0.4488004744052887, -0.05580602586269379, -0.08432122319936752, -0.004376469645649195, -0.052682433277368546, 0.46825408935546875, 0.4781768023967743, 0.3792140781879425, 0.13278602063655853, 0.019275782629847527, 0.40966108441352844, 0.12591233849525452, 0.12399926781654358, 0.23458148539066315, -0.24720162153244019, 0.5177841186523438, -0.06280636787414551, -0.12373805791139603, -0.006804255768656731, -0.07547180354595184, 0.5915670394897461, 0.4736036956310272, 0.39909300208091736, 0.06433188915252686, -0.007925078272819519, 0.3277134895324707, 0.22201256453990936, 0.08472417294979095, 0.29193735122680664, -0.2245972752571106, 0.5029884576797485, -0.02591286040842533, -0.1415121704339981, 0.0003729659947566688, -0.05269318446516991, 0.5468884110450745, 0.5441088676452637, 0.4847975969314575, 0.13211306929588318, 0.09883707016706467, 0.622492790222168, 0.09465961158275604, 0.14365532994270325, 0.11208682507276535, -0.24972140789031982, 0.5191420316696167, 0.03284876421093941, -0.1340274065732956, 0.13171839714050293, -0.0052239298820495605, 0.8820895552635193, 0.6956144571304321, 0.5695050954818726, -0.014832877553999424, -0.161271870136261, 0.7614559531211853, 0.058772556483745575, 0.17633004486560822, 0.3735990524291992, -0.12538565695285797, 0.4429551661014557, -0.073540098965168, -0.17793944478034973, 0.05908510088920593, -0.08771467953920364, 0.9749225378036499, 0.6761425733566284, 0.5672504305839539, 0.04781774431467056, -0.26494458317756653, 0.8755268454551697, -0.21512918174266815, 0.2056662142276764, 0.6092174053192139, -0.13869838416576385, 0.5681419372558594, -0.06149745732545853, -0.09993058443069458, 0.18520323932170868, -0.033339809626340866, 1.0530918836593628, 0.8051083087921143, 0.6121654510498047, 0.10490254312753677, -0.19435882568359375, 0.9002401232719421, -0.18799665570259094, 0.20993992686271667, 0.5461322665214539, -0.0580434687435627, 0.5316872596740723, -0.010442502796649933, -0.030597973614931107, 0.27928540110588074, -0.16493850946426392, 1.21009361743927, 0.8916118144989014, 0.7155443429946899, 0.13360735774040222, -0.3208884596824646, 0.8374885320663452, -0.29217949509620667, 0.1874220222234726, 0.6494646668434143, -0.20830097794532776, 0.6082895398139954, -0.09105115383863449, -0.10861213505268097, 0.23709701001644135, -0.09858474135398865, 1.0540322065353394, 0.8018450736999512, 0.58211350440979, 0.16976335644721985, -0.09155481308698654, 0.7429769039154053, -0.1577293574810028, 0.177755668759346, 0.5011890530586243, -0.10492676496505737, 0.44470667839050293, -0.07330551743507385, -0.08947226405143738, 0.22325295209884644, -0.04826667159795761, 0.8447271585464478, 0.6285754442214966, 0.4526512622833252, 0.152790829539299, -0.15862351655960083, 0.5377705097198486, 0.0020840598735958338, 0.004665789660066366, 0.36409991979599, -0.1335524618625641, 0.43340250849723816, 0.00034167617559432983, -0.1966039538383484, 0.023938031867146492, 0.03144369646906853, 0.6697380542755127, 0.4202015995979309, 0.1971704065799713, 0.019742732867598534, -0.09614304453134537, 0.2742936611175537, 0.07929293066263199, -0.08242101222276688, 0.2127927988767624, 0.017921678721904755, 0.2133152335882187, 0.037873249500989914, 0.045643821358680725, 0.05121060460805893, 0.03676987066864967, 0.3664810061454773, 0.2018115073442459, 0.0010148382280021906, -0.052938513457775116, -0.08496681600809097, 0.04809508100152016, -0.06915678083896637, 0.09272122383117676, 0.14510846138000488, -0.052205782383680344, 0.14531546831130981, -0.039383016526699066, 0.07302925735712051, -0.06708397716283798, -0.05810030549764633, 0.1408526599407196, -0.03647193685173988, 0.026982052251696587, -0.0023666443303227425, 0.02918638288974762, -0.07344172149896622, 0.01634974032640457, -0.01954401284456253, 0.034395307302474976, -0.021734900772571564, -0.0034005045890808105, -0.08412861078977585, 0.013968944549560547, 0.03104493021965027, -0.05717761814594269, -0.052335213869810104, 0.014912225306034088, 0.03155922889709473, -0.039381302893161774, 0.010704569518566132, -0.010031327605247498, -0.06762827187776566, 0.06548632681369781, -0.06739024072885513, -0.002917833626270294, 0.04313318431377411, -0.025410272181034088, -0.06408073008060455, 0.03051076829433441, -0.027435895055532455, 0.000882372260093689, 0.053756117820739746, 0.034070029854774475, 0.012968599796295166, 0.03968951106071472, -0.03782743960618973, -0.03233243152499199, 0.07279318571090698, -0.07290586829185486, -0.0014627650380134583, 0.0694463849067688, -0.001786068081855774, -0.07234900444746017, 0.0796215832233429, -0.008098118007183075, -0.024792976677417755, -0.019186504185199738, 0.0828363299369812, -0.03898315131664276, 0.03837008774280548, -0.04250776395201683, 0.045073866844177246, -0.08275800943374634, -0.011587418615818024, -0.04607382044196129, 0.07431988418102264, -0.07077652961015701, 0.08243419229984283, -0.013108082115650177, 0.04490800201892853, 0.026465654373168945, -0.029502451419830322, 0.03031773865222931, -0.010625749826431274, 0.07739200443029404, 0.013322873041033745, 0.06269708275794983, 0.021571530029177666, -0.05487177520990372, -0.05626349151134491, 0.08240213245153427, -0.02760479599237442, 0.08202889561653137, 0.03235556557774544, 0.004850865341722965, 0.0365406759083271, 0.07143876701593399, -0.05643002316355705, 0.018068499863147736, 0.0262600164860487, 0.04246824234724045, -0.0038710832595825195, 0.004168557934463024, 0.07125089317560196, -0.11889199912548065, 0.18492737412452698, 0.08101755380630493, 0.03771475702524185, -0.011741608381271362, 0.0207276102155447, -0.08957459032535553, -0.014898864552378654, -0.010165680199861526, 0.0854204073548317, 0.03332310542464256, 0.2664283514022827, 0.029709111899137497, -0.02045414410531521, 0.18968898057937622, -0.11197712272405624, 0.08659671247005463, -0.055909596383571625, 0.025608878582715988, 0.16806362569332123, -0.017408769577741623, 0.07231499999761581, 0.23115888237953186, 0.0721316933631897, 0.12122581154108047, 0.09054597467184067, 0.10385122150182724, 0.20116083323955536, -0.03656527027487755, 0.2321435511112213, 0.010558165609836578, 0.17245785892009735, -0.08242567628622055, -0.10406613349914551, 0.0060293786227703094, 0.07033851742744446, 0.37630951404571533, 0.24952317774295807, 0.12573039531707764, 0.056531719863414764, 0.10994726419448853, 0.1768246740102768, 0.2704381048679352, -0.05455801263451576, 0.2624058127403259, -0.125818133354187, 0.24426110088825226, -0.021764975041151047, -0.16079577803611755, 0.05371975153684616, 0.07828887552022934, 0.5313588976860046, 0.1552228331565857, 0.05785413458943367, 0.0847967341542244, 0.17313773930072784, 0.2398918867111206, 0.2319696694612503, 0.0748954638838768, 0.18067774176597595, -0.34740570187568665, 0.15932464599609375, -0.1285119205713272, -0.22966323792934418, 0.04984010383486748, 0.12142292410135269, 0.6075155138969421, 0.3596968352794647, 0.06688293814659119, 0.043153487145900726, 0.2719229757785797, 0.08002219349145889, 0.24949297308921814, -0.04263649508357048, 0.27479806542396545, -0.2590552568435669, 0.2140030860900879, 0.02132689766585827, -0.2821657657623291, -0.2161431759595871, 0.02667798101902008, 0.6080136299133301, 0.2758753299713135, -0.012792269699275494, 0.10546468198299408, 0.3949527442455292, 0.04278317466378212, 0.2628278434276581, 0.04440265893936157, 0.21017229557037354, -0.39401310682296753, 0.3021411597728729, -0.029444266110658646, -0.33235523104667664, -0.24587570130825043, -0.029151523485779762, 0.5425596833229065, 0.20872387290000916, -0.196197509765625, 0.13777875900268555, 0.36805352568626404, 0.21795682609081268, 0.27843809127807617, -0.0371699221432209, 0.08326933532953262, -0.3024005591869354, 0.2955678403377533, -0.07663620263338089, -0.287479043006897, -0.1416783183813095, -0.015529806725680828, 0.33328425884246826, 0.3432281017303467, -0.057941071689128876, 0.0941014438867569, 0.38350144028663635, -0.015089637599885464, 0.15338635444641113, -0.22923266887664795, 0.036397963762283325, -0.34796544909477234, 0.09261655062437057, -0.11669471859931946, -0.26998963952064514, -0.05464409664273262, -0.010950533673167229, 0.2629891335964203, 0.2808341085910797, -0.07071490585803986, 0.12617534399032593, 0.323215126991272, -0.12003888189792633, 0.26444903016090393, -0.2887633740901947, -0.13234949111938477, -0.5054389238357544, -0.026408620178699493, -0.12086500972509384, -0.38658881187438965, -0.20120874047279358, 0.19343265891075134, 0.07605157047510147, 0.09547149389982224, -0.012915084138512611, 0.2648363709449768, 0.3307616114616394, 0.140669584274292, 0.13422352075576782, -0.1781257539987564, -0.05810466408729553, -0.5415578484535217, -0.002462402917444706, -0.1557493805885315, -0.4542073905467987, -0.2846667468547821, 0.2153731882572174, 0.09139494597911835, 0.10622827708721161, -0.08242149651050568, 0.09202684462070465, 0.13376334309577942, 0.07977531105279922, -0.07380285114049911, -0.20742224156856537, 0.09155041724443436, -0.6574634313583374, -0.08329471945762634, -0.09033335745334625, -0.48774784803390503, -0.19603975117206573, 0.08630730956792831, 0.1458645910024643, 0.21594759821891785, -0.01426516193896532, 0.15506556630134583, 0.11838728934526443, 0.09686483442783356, -0.14229480922222137, -0.20901267230510712, -0.04789508879184723, -0.40653571486473083, 0.05383830890059471, -0.18272139132022858, -0.4343802034854889, -0.1428174525499344, -0.004701234400272369, 0.08222208172082901, 0.17161408066749573, -0.06285606324672699, 0.1661325842142105, 0.1274661123752594, 0.11652584373950958, 0.08830396831035614, 0.00139480154030025, 0.024978352710604668, -0.3343397378921509, 0.15274843573570251, -0.05252738669514656, -0.10967471450567245, -0.15626485645771027, -0.013632812537252903, -0.02633051760494709, 0.22085906565189362, -0.0629667118191719, 0.23221850395202637, 0.24026885628700256, 0.1778092235326767, -0.029905613511800766, -0.07735783606767654, 0.09970871359109879, -0.19450291991233826, 0.07074403017759323, -0.055364906787872314, -0.009414689615368843, -0.26414915919303894, 0.09920430183410645, 0.15056172013282776, 0.33894091844558716, -0.10396309942007065, 0.1621476113796234, 0.12223780900239944, 0.39930111169815063, 0.03152228519320488, -0.08007847517728806, 0.09577108174562454, -0.090426966547966, 0.09527822583913803, -0.11372537165880203, -0.13261425495147705, -0.25703710317611694, -0.030324093997478485, 0.0437188558280468, 0.2742542326450348, 0.12958869338035583, 0.1325785368680954, 0.012453216128051281, 0.5905506014823914, -0.04196855053305626, 0.06567554175853729, 0.24933749437332153, -0.0726570338010788, 0.13238170742988586, -0.0699816346168518, -0.0821133702993393, -0.0910942330956459, -0.1073438972234726, 0.16636811196804047, 0.3176559805870056, 0.1597510725259781, 0.1373044103384018, 0.08354591578245163, 0.5208823680877686, 0.015169596299529076, -0.01279293280094862, 0.16380833089351654, 0.07102041691541672, 0.24357695877552032, -0.011612753383815289, 0.07417560368776321, -0.03689475357532501, -0.005368425045162439, 0.17130935192108154, 0.31274300813674927, 0.23220843076705933, -0.01850961335003376, -0.10041816532611847, 0.6199913620948792, -0.019988713786005974, -0.024671420454978943, 0.19773763418197632, 0.017460057511925697, 0.18780508637428284, 0.04711560904979706, 0.03659674525260925, 0.026032403111457825, -0.21925847232341766, 0.18903955817222595, 0.3125879168510437, 0.23716293275356293, 0.06557483971118927, -0.20415322482585907, 0.5873923897743225, 0.055712081491947174, 0.0015637436881661415, 0.2776441276073456, 0.08968380093574524, 0.009831706061959267, 0.1007407009601593, 0.08883797377347946, -0.11082582175731659, -0.16454359889030457, 0.36596667766571045, 0.3329026997089386, 0.3469464182853699, 0.10737954825162888, -0.19278253614902496, 0.602583110332489, -0.11809752881526947, -0.1030951663851738, 0.35738077759742737, 0.20173470675945282, -0.050720252096652985, 0.07758951187133789, 0.01042243093252182, 0.06297885626554489, -0.0329047329723835, 0.19995608925819397, 0.23397554457187653, 0.3048032522201538, 0.09025141596794128, -0.08338841050863266, 0.4501175880432129, -0.09456725418567657, -0.1482231318950653, 0.27210843563079834, 0.15715770423412323, 0.1884978711605072, 0.08545089513063431, 0.07163651287555695, 0.10958286374807358, 0.005277078598737717, 0.2337319403886795, -0.028120670467615128, 0.24602867662906647, 0.12842810153961182, -0.13208572566509247, 0.14421847462654114, -0.039105404168367386, -0.1800275295972824, 0.24845856428146362, -0.03601563721895218, 0.196694478392601, -0.009939412586390972, -0.045311711728572845, -0.08406306058168411, -0.011877333745360374, 0.24641305208206177, 0.0040739006362855434, 0.017462963238358498, -0.09366351366043091, -0.022007670253515244, -0.005914363544434309, -0.04993847385048866, -0.03444232791662216, -0.0017020597588270903, -0.045267995446920395, -0.034905657172203064, 0.015691377222537994, -0.0053060404025018215, 0.020702578127384186, -0.019904673099517822, 0.006393480114638805, -0.08821801841259003, 0.06286691129207611, 0.05582714080810547, -0.01668485999107361, -0.04040501266717911, -0.06673521548509598, 0.08407653868198395, 0.0503164678812027, 0.0634215772151947, 0.010154195129871368, -0.07067566365003586, -0.048482201993465424, -0.08273197710514069, 0.0811503529548645, 2.6009976863861084e-05, -0.07949057966470718, 0.07793129980564117, -0.018788307905197144, 0.030616506934165955, 0.08104096353054047, 0.06552010774612427, 0.027096956968307495, 0.003944456577301025, -0.057051628828048706, 0.0635816901922226, -0.03856890648603439, 0.02877098321914673, -0.055410146713256836, -0.06860285252332687, -0.030913814902305603, -0.07119492441415787, -0.04805709049105644, -0.06813652068376541, 0.037502069026231766, -0.06106264889240265, 0.07423736155033112, -0.029534224420785904, -0.03158555179834366, 0.006941929459571838, 0.038468554615974426, -0.012375995516777039, -0.04853244870901108, 0.04188726842403412, 0.07634786516427994, 0.00866406224668026, -0.08330605179071426, 0.07806287705898285, 0.11265230923891068, 0.05976433306932449, -0.09421535581350327, 0.11123982816934586, 0.06802216917276382, -0.035195715725421906, 0.06265439093112946, 0.007061306852847338, -0.013258136808872223, -0.053281523287296295, 0.07810553908348083, 0.05496940016746521, 0.043516065925359726, -0.010204867459833622, -0.04003142938017845, -0.004700399935245514, 0.16127820312976837, -0.07235615700483322, 0.1822916716337204, 0.018285997211933136, -0.09769874066114426, 0.05878559872508049, 0.012406639754772186, -0.017525114119052887, 0.03980613872408867, -0.013437459245324135, 0.10169271379709244, 0.014121281914412975, 0.07235358655452728, -0.10338892787694931, 0.1377660483121872, 0.3698631525039673, 0.04457933083176613, 0.21322089433670044, -0.07086652517318726, 0.038956623524427414, 0.12987463176250458, 0.20541590452194214, 0.019505290314555168, -0.04737894982099533, 0.0007218294194899499, -0.01469886302947998, -0.0063380952924489975, 0.06147945299744606, -0.1057269275188446, 0.3547988533973694, 0.29528236389160156, -0.05561942607164383, 0.4092584252357483, -0.05216335877776146, 0.030561884865164757, 0.3028571903705597, 0.22296273708343506, -0.006976700387895107, 0.1676616370677948, -0.09056065231561661, -0.0595753937959671, 0.17620323598384857, 0.0007649154867976904, -0.0711885541677475, 0.28678247332572937, 0.4437822699546814, 0.05775177478790283, 0.3738081157207489, 0.04879443347454071, 0.23805661499500275, 0.0655345469713211, 0.03749319165945053, -0.07442861050367355, 0.15610791742801666, -0.24517038464546204, 0.02016131579875946, 0.2940240204334259, 0.080587238073349, 0.06213050335645676, 0.4051024317741394, 0.48965075612068176, 0.039101604372262955, 0.25721415877342224, 0.0014980286359786987, 0.06009480357170105, 0.01654156483709812, 0.01602613553404808, -0.17148014903068542, -0.03939121589064598, -0.17387792468070984, 0.1466461569070816, 0.09354943037033081, 0.18407388031482697, -0.11181473731994629, 0.29913970828056335, 0.32181259989738464, -0.2371985763311386, 0.19373159110546112, -0.1510179489850998, -0.08998768031597137, 0.0966077595949173, 0.03210458531975746, -0.12404906004667282, -0.04268397390842438, -0.20288708806037903, 0.12493381649255753, 0.17580562829971313, 0.001364432042464614, -0.30279144644737244, 0.17423735558986664, 0.31094035506248474, -0.0617489255964756, 0.18300621211528778, -0.11739329248666763, -0.10460494458675385, -0.020158210769295692, 0.033168941736221313, -0.1067536324262619, -0.1672903150320053, -0.016124706715345383, 0.18835093080997467, 0.1694137454032898, 0.12580034136772156, -0.023242857307195663, 0.04677024856209755, 0.26378685235977173, 0.05618828535079956, 0.1851711869239807, 0.04462673142552376, -0.10639657825231552, -0.0731649175286293, 0.12052814662456512, -0.20393811166286469, -0.15272870659828186, 0.003080634865909815, 0.0029325950890779495, 0.13574931025505066, -0.021778421476483345, -0.012359232641756535, 0.09607870131731033, 0.1232927143573761, -0.07355619221925735, 0.20934167504310608, -0.04569286108016968, -0.19196541607379913, 0.08388817310333252, 0.041517797857522964, -0.2808161675930023, -0.07111276686191559, -0.03821578621864319, 0.14898045361042023, 0.0843602642416954, -0.1338980793952942, 0.09298836439847946, 0.12549297511577606, 0.15608452260494232, -0.008010685443878174, 0.17533794045448303, -0.0951959639787674, -0.033187489956617355, -0.026179039850831032, 0.08405271917581558, -0.1931394338607788, -0.12994469702243805, -0.14965809881687164, 0.04220915958285332, 0.0809604823589325, -0.09897056967020035, 0.03545309975743294, 0.14357760548591614, 0.1565919816493988, -0.12503476440906525, 0.19354671239852905, -0.037124693393707275, 0.04034210368990898, 0.005205296911299229, -0.04019340127706528, -0.2533881962299347, -0.3353731036186218, 0.007169566582888365, 0.1962277740240097, -0.004437628202140331, 0.07498698681592941, -0.0702156350016594, 0.17001688480377197, 0.08367544412612915, 0.04604420065879822, 0.21164047718048096, 0.05200694501399994, -0.10237028449773788, -0.23254215717315674, 0.026715803891420364, -0.28122150897979736, -0.4628986716270447, -0.10746270418167114, -0.03541717678308487, -0.130912646651268, -0.011182360351085663, 0.05978412926197052, 0.03033386543393135, 0.15139009058475494, 0.051440369337797165, 0.11641059815883636, -0.008771342225372791, -0.09066636115312576, -0.1304679661989212, -0.05797958746552467, -0.24690736830234528, -0.23762144148349762, -0.002031229203566909, 0.15783938765525818, -0.02973196469247341, 0.05207061767578125, 0.07097374647855759, 0.08344371616840363, 0.1762770116329193, 0.13667917251586914, 0.16655850410461426, 0.0030618105083703995, -0.04316102713346481, 0.019789665937423706, -0.023051375523209572, -0.23743179440498352, -0.18824881315231323, -0.08888337016105652, 0.06407003849744797, -0.005980746354907751, 0.017216259613633156, 0.06381215900182724, 0.10449524968862534, 0.15210305154323578, 0.16032515466213226, 0.06054849922657013, 0.04446664825081825, 0.0022781689185649157, 0.10620859265327454, -0.05945442616939545, -0.1656082570552826, -0.11708556860685349, 0.013629821129143238, 0.04688620567321777, 0.13964833319187164, 0.057184092700481415, -0.016276516020298004, 0.08326395601034164, 0.17852936685085297, 0.11358653753995895, 0.04350775480270386, 0.02044285088777542, -0.03258012235164642, 0.10347100347280502, -0.09832800924777985, -0.16749852895736694, -0.03461511433124542, 0.06674255430698395, 0.01812085509300232, -0.020009445026516914, 0.004503404721617699, 0.005087047815322876, 0.26473304629325867, 0.1758221685886383, 0.07107774913311005, 0.07222434133291245, 0.018675388768315315, 0.14298439025878906, 0.06601150333881378, -0.16042515635490417, -0.11284659802913666, -0.02062239497900009, -0.00995996966958046, 0.028307294473052025, 0.04517640918493271, 0.04282015562057495, 0.032277170568704605, 0.2283603698015213, -0.12841196358203888, 0.11784318834543228, 0.07967393100261688, -0.026424173265695572, 0.16721630096435547, 0.14208585023880005, -0.069045290350914, -0.012424809858202934, 0.030020728707313538, 0.01645931787788868, 0.02720908261835575, -0.07871991395950317, 0.04473555460572243, -0.05355953425168991, 0.04730070009827614, -0.08927448093891144, 0.2319825291633606, 0.015901265665888786, -0.056599389761686325, 0.24397766590118408, 0.1959366649389267, -0.11768654733896255, -0.03326062485575676, 0.02553839609026909, 0.1265110820531845, 0.08932896703481674, -0.10446256399154663, 0.07675731182098389, 0.03647303953766823, 0.08588531613349915, -0.030207449570298195, 0.20894423127174377, -0.12385532259941101, 0.03783528879284859, 0.2652859687805176, 0.29263532161712646, -0.1630210429430008, 0.02661815471947193, 0.12007094919681549, 0.06408693641424179, -0.07851141691207886, -0.08107518404722214, -0.0359964482486248, -0.07427559792995453, 0.04345698282122612, -0.09866876900196075, 0.45119011402130127, -0.19234420359134674, 0.0002740314812399447, 0.27742689847946167, 0.2901898920536041, -0.07418688386678696, -0.014089604839682579, 0.16878753900527954, 0.14260435104370117, -0.006590850185602903, -0.02497952990233898, -0.2278449684381485, 0.002089936286211014, 0.08281803131103516, 0.2213483303785324, 0.32702839374542236, -0.29072651267051697, 0.08920282125473022, -0.04079778492450714, 0.21633969247341156, -0.031056558713316917, 0.04782653972506523, 0.20986203849315643, 0.20571963489055634, -0.1277698129415512, -0.10304484516382217, -0.10233663022518158, 0.2585541009902954, 0.38577261567115784, 0.16588115692138672, 0.1304745227098465, 0.0014124165754765272, 0.05549439415335655, -0.2596384882926941, 0.05517221614718437, -0.08895301073789597, 0.0032102568075060844, 0.06334952265024185, 0.1083773523569107, -0.2226751744747162, -0.04144192114472389, -0.0024162132758647203, 0.41818439960479736, 0.25496795773506165, 0.19373323023319244, 0.22465090453624725, -0.06540045887231827, 0.06154952943325043, -0.21122530102729797, -0.0761316567659378, 0.009605462662875652, -0.027409618720412254, -0.006978845223784447, 0.15706844627857208, 0.06916543841362, -0.01409931480884552, -0.11067706346511841, 0.364189088344574, 0.12261843681335449, -0.005566023290157318, -0.006327323615550995, -0.1300310492515564, -0.07854340225458145, -0.05526652932167053, -0.08934582024812698, 0.01956508867442608, -0.054701466113328934, 0.005279924254864454, 0.09132350981235504, -0.001849144697189331, 0.09292355924844742, 0.005054455250501633, 0.0495668426156044, -0.0009406013414263725, -0.0001737549901008606, -0.038784995675086975, -0.03214741498231888, -0.07391102612018585, 0.07811063528060913, -0.046653635799884796, -0.022876769304275513, -0.010138578712940216, -0.06592654436826706, -0.0580839142203331, 0.046675413846969604, -0.04127570986747742, -0.001187242567539215, 0.032766446471214294, 0.04933252930641174, 0.04120802879333496, -0.08141911774873734, 0.05802454054355621, -0.0582890510559082, 0.02059885859489441, 0.00036659836769104004, 0.015056498348712921, -0.024736985564231873, 0.08579300343990326, -0.04777817055583, 0.014204539358615875, 0.06259839236736298, -0.03937256336212158, -0.007479391992092133, -0.0004324018955230713, 0.015242312103509903, 0.1552012860774994, 0.2070511281490326, -0.06921709328889847, 0.029628053307533264, -0.004238388501107693, 0.18140295147895813, 0.03491545096039772, -0.025783786550164223, -0.0508284792304039, 0.09480155259370804, 0.23445172607898712, 0.06358366459608078, -0.0175834558904171, 0.03763971105217934, 0.3349531590938568, -0.044627297669649124, 0.23164445161819458, 0.028253531083464622, -0.03309818357229233, 0.20922769606113434, 0.08864722400903702, 0.11479081958532333, 0.07394445687532425, 0.10566002130508423, 0.11313233524560928, -0.05952148884534836, 0.03350067138671875, -0.11857116967439651, 0.39706042408943176, 0.5070725679397583, -0.196966752409935, 0.4050469994544983, 0.07526994496583939, 0.15032851696014404, 0.20137234032154083, 0.1475425660610199, -0.14775238931179047, -0.07546306401491165, -0.02575105056166649, 0.17225691676139832, 0.12001238763332367, 0.08053427189588547, -0.3723272383213043, 0.5113296508789062, 0.26326480507850647, -0.1727760285139084, 0.2769205868244171, 0.13464032113552094, 0.12208221852779388, 0.26745837926864624, -0.03275277465581894, -0.03472127020359039, -0.09006872028112411, -0.27487412095069885, -0.11651855707168579, -0.03852098807692528, 0.01878983899950981, -0.22929459810256958, 0.4453783631324768, 0.3622696101665497, -0.17254450917243958, 0.14334630966186523, -0.012198520824313164, 0.08082416653633118, 0.20081983506679535, -0.06760672479867935, -0.014894155785441399, 0.024075986817479134, -0.36915716528892517, 0.11259442567825317, 0.07838567346334457, 0.1323707550764084, -0.1745058298110962, 0.30307164788246155, 0.05203944444656372, -0.1324813812971115, 0.06893271952867508, -0.00510048633441329, 0.08764699846506119, 0.11452417820692062, -0.06426087766885757, 0.09620799869298935, -0.01159694790840149, -0.17469264566898346, 0.08522084355354309, 0.10027909278869629, -0.09357170760631561, -0.20244531333446503, 0.10252624750137329, 0.18059882521629333, -0.03346768766641617, -0.03325868025422096, -0.32147037982940674, 0.013173517771065235, 0.09956838190555573, -0.05317934229969978, 0.11123969405889511, 0.057935431599617004, -0.22237573564052582, 0.11115327477455139, 0.06965608149766922, -0.012135195545852184, 0.0199422687292099, 0.15983712673187256, 0.11267249286174774, 0.0652521476149559, -0.0918586328625679, -0.10758163779973984, 0.0544310137629509, 0.10036691278219223, -0.07116925716400146, -0.0423828549683094, 0.01044901367276907, -0.022647136822342873, 0.08440209180116653, 0.190667986869812, -0.06598618626594543, 0.06275109946727753, 0.01720517687499523, 0.20356088876724243, 0.10910667479038239, 0.11059991270303726, -0.1669442057609558, -0.16254357993602753, 0.03742000088095665, 0.00012195651652291417, -0.15840676426887512, -0.003971812780946493, 0.049876220524311066, 0.11854087561368942, 0.08149225264787674, 0.007802270818501711, -0.10285907983779907, 0.08751432597637177, 0.08477912098169327, -0.03683815523982048, -3.0280789360404015e-05, -0.12253076583147049, -0.22416919469833374, -0.005711220670491457, 0.028187673538923264, -0.1976124346256256, -0.09740178287029266, -0.020817339420318604, 0.0616903081536293, -0.09242858737707138, -0.06350436806678772, 0.06438176333904266, 0.0023067293222993612, 0.0100622046738863, 0.014430670067667961, 0.10447123646736145, -0.1815910041332245, -0.08189956098794937, 0.05414529889822006, 0.026235999539494514, -0.30546265840530396, -0.05623849853873253, -0.08672302216291428, 0.010325524024665356, -0.04939961060881615, 0.047326330095529556, 0.10058078169822693, 0.07129200547933578, 0.014649775810539722, -0.12042609602212906, 0.04596272483468056, -0.0926433727145195, -0.12150683254003525, 0.003795310389250517, 0.01285772304981947, -0.1442449390888214, -0.11881450563669205, -0.04679154232144356, 0.11556748300790787, -0.11023830622434616, 0.032821089029312134, -0.005719523876905441, 0.046008266508579254, 0.017415812239050865, -0.046422477811574936, 0.08543781191110611, -0.04037407413125038, -0.05386871472001076, -0.0836927518248558, 0.028984174132347107, -0.260090708732605, -0.11849667876958847, -0.09316370636224747, 0.11904989182949066, -0.08614777028560638, 0.039687324315309525, -0.0033216422889381647, -0.02154676616191864, -0.007696378044784069, 0.06218870356678963, 0.11495768278837204, -0.05539665371179581, -0.0013093010056763887, -0.09179370105266571, -0.019458960741758347, -0.21277835965156555, -0.1755751222372055, -0.09170719981193542, 0.12229986488819122, 0.038312993943691254, -0.049615904688835144, -0.07605087757110596, 0.08376166224479675, 0.1396482139825821, -0.05726702883839607, 0.10787468403577805, -0.061792273074388504, -0.03595387190580368, -0.156007781624794, 0.020889872685074806, -0.3126753568649292, -0.14625991880893707, -0.034863777458667755, 0.14051976799964905, 0.059126436710357666, -0.10178037732839584, 0.048085443675518036, -0.025674469769001007, 0.046638261526823044, 0.16609731316566467, 0.036257099360227585, -0.11391940712928772, -0.06548898667097092, -0.009192055091261864, -0.07069352269172668, -0.4114169478416443, -0.20942161977291107, 0.043501053005456924, 0.07550353556871414, 0.045236993581056595, 0.035982921719551086, 0.13749544322490692, -0.05533011257648468, 0.09421196579933167, 0.06382633745670319, 0.04917927831411362, -0.030954057350754738, 0.0078016407787799835, -0.02208244986832142, -0.013804702088236809, -0.5466050505638123, -0.12424749881029129, 0.10640640556812286, 0.06873873621225357, 0.08535870164632797, 0.05109883472323418, -0.039786845445632935, 0.038079969584941864, 0.01684209518134594, -0.004373712930828333, 0.042610447853803635, 0.016549715772271156, 0.06660886108875275, 0.0977591797709465, 0.01872106082737446, -0.4079801142215729, -0.1255529373884201, 0.10353728383779526, 0.019619500264525414, 0.001863245153799653, 0.07807562500238419, 0.0009111667168326676, 0.0863463506102562, 0.025412842631340027, 0.10987538844347, -0.04550975188612938, 0.08463456481695175, 0.03263787180185318, -0.02067180722951889, -0.0201520174741745, -0.39718180894851685, -0.08257216215133667, 0.05349350348114967, -0.05448842793703079, 0.0716354176402092, -0.01652989163994789, 0.07290783524513245, -0.040862198919057846, 0.03785298764705658, 0.09053222090005875, 0.13097044825553894, 0.08686540275812149, 0.08533572405576706, 0.10350120812654495, 0.1186809241771698, -0.17987991869449615, -0.00469515286386013, 0.05257448926568031, 0.059211090207099915, -0.05854932591319084, -0.0700138509273529, 0.05338183045387268, -0.11509021371603012, 0.10365481674671173, 0.20193202793598175, -0.008974210359156132, 0.025939160957932472, 0.10685473680496216, 0.06423741579055786, -0.03397415578365326, -0.11156684160232544, 0.07045905292034149, 0.1508917659521103, 0.06539618223905563, -0.1990930289030075, -0.1442781388759613, 0.10605510324239731, -0.03878922387957573, 0.04773552343249321, 0.3859352469444275, -0.07987602055072784, -0.06524225324392319, 0.19756866991519928, 0.24742001295089722, -0.07027288526296616, -0.17763292789459229, 0.2186976969242096, 0.09440255910158157, -0.11559027433395386, -0.05454479157924652, -0.12025650590658188, -0.13865315914154053, 0.05076431483030319, 0.10759816318750381, 0.4157543182373047, 0.038566622883081436, 0.0009768062736839056, -0.01351224910467863, 0.051865193992853165, -0.20470017194747925, -0.05123177915811539, 0.21185392141342163, 0.05303840711712837, -0.24573805928230286, -0.011922945268452168, -0.17288337647914886, 0.01797739416360855, 0.37451207637786865, 0.22891326248645782, 0.2165757566690445, 0.10178802162408829, 0.07166129350662231, -0.27117249369621277, 0.14674605429172516, -0.3079906404018402, -0.1486925631761551, 0.27071139216423035, 0.3025148808956146, -0.24786972999572754, -0.07510073482990265, 0.12692870199680328, 0.41160309314727783, 0.3856237828731537, 0.27226412296295166, 0.3248319923877716, 0.17704468965530396, 0.11507430672645569, -0.1929304450750351, -0.016638046130537987, 0.10107934474945068, -0.029523583129048347, 0.023026451468467712, 0.30217066407203674, -0.14361520111560822, 0.01540177222341299, 0.0002487259334884584, 0.49679556488990784, 0.21988987922668457, 0.03316917270421982, -0.015235519036650658, -0.036828164011240005, -0.029915083199739456, 0.05828016996383667, -0.03622639551758766, -0.033986896276474, -0.0030617325101047754, -0.05599067360162735, 0.10591402649879456, -0.08203800767660141, 0.033643919974565506, 0.027466079220175743, 0.04535811394453049, -0.015641000121831894, 0.046924248337745667, -0.005173549056053162, -0.0039159804582595825, -0.024137645959854126, -0.07168199867010117, -0.03554963320493698, 0.013563849031925201, -0.0009918510913848877, -0.04369155317544937, 0.0363207682967186, 0.014259204268455505, -0.026486895978450775, -0.06592947244644165, -0.028362873941659927, 0.07259753346443176, 0.0054953438229858875, 0.03330114483833313, -0.04835214093327522, -0.045718785375356674, 0.055159181356430054, 0.013947868719696999, -0.07096406817436218, 0.0742606520652771, 0.03796890750527382, 0.0488305538892746, -0.02482881210744381, 0.0373731404542923, -0.029140189290046692, -0.06200771778821945, -0.00536415446549654, 0.145481675863266, 0.16710680723190308, 0.10556082427501678, 0.1356583535671234, 0.110439732670784, 0.04243670403957367, -8.411286398768425e-05, 0.21498340368270874, 0.0748361200094223, -0.08345098793506622, -0.01736912503838539, 0.09516013413667679, 0.07346425205469131, -0.0018749114824458957, 0.10850127786397934, 0.4795028269290924, 0.010862955823540688, 0.08537985384464264, 0.04655148833990097, -0.060725998133420944, 0.14118599891662598, -0.05490168556571007, 0.415584921836853, 0.2093242108821869, -0.07922986894845963, 0.11575698852539062, 0.01157347485423088, -0.11995769292116165, -0.18972022831439972, 0.5270875692367554, 0.32273268699645996, -0.06621323525905609, 0.19661852717399597, 0.2087581306695938, 0.06872021406888962, 0.19318537414073944, 0.11376629769802094, 0.17987367510795593, -0.06128716468811035, 0.022320665419101715, -0.012237702496349812, 0.11780070513486862, 0.09383206814527512, -0.16273470222949982, 0.3904964327812195, 0.13524456322193146, -0.15786905586719513, 0.004679410718381405, 0.02066139504313469, 0.030651239678263664, 0.26252424716949463, -0.10690012574195862, 0.20006690919399261, 0.09235559403896332, -0.08210200071334839, 0.0534965917468071, -0.12495950609445572, -0.03648771345615387, -0.2128262221813202, 0.12837347388267517, 0.14555305242538452, -0.1642884761095047, 0.023257382214069366, 0.00804158765822649, -0.1255389302968979, -0.024381529539823532, -0.08335821330547333, 0.17479181289672852, -0.019036322832107544, -0.20831871032714844, 0.03814451023936272, -0.05123996362090111, 0.012173333205282688, -0.19048689305782318, 0.09879224002361298, 0.04944087564945221, 0.13897843658924103, -0.07970142364501953, -0.012841331772506237, -0.07062715291976929, 0.00459487596526742, -0.055561937391757965, 0.0847475677728653, 0.003287002444267273, -0.06651084125041962, 0.0845152959227562, 0.0041146427392959595, -0.06420683860778809, -0.1009385734796524, 0.014089894481003284, 0.021755844354629517, -0.04180397093296051, -0.01774282567203045, -0.32164257764816284, -0.16904175281524658, 0.03297243267297745, -0.1603723019361496, 0.20580022037029266, 0.12764059007167816, -0.11688142269849777, 0.04976343363523483, 0.03744043782353401, -0.12042663246393204, 0.01006912998855114, 0.05077818036079407, 0.06293768435716629, -0.12416832149028778, -0.048180025070905685, -0.11066100001335144, -0.10212395340204239, 0.032316237688064575, -0.1441698968410492, 0.09468787163496017, 0.0583723746240139, -0.1236189752817154, -0.013644814491271973, -0.000995566020719707, -0.15004482865333557, -0.1091575101017952, 0.0803956389427185, 0.12756453454494476, -0.09376654028892517, 0.009306049905717373, -0.05291242152452469, -0.12081165611743927, -0.10121262073516846, 0.014181978069245815, -0.0036034472286701202, -0.008094700053334236, -0.05107610300183296, -0.037521783262491226, -0.15558172762393951, -0.12146112322807312, -0.043935585767030716, 0.039429642260074615, 0.05040355771780014, 0.023601114749908447, 0.009661991149187088, -0.07948280870914459, -0.0967189222574234, -0.04352417215704918, -0.009786605834960938, -0.021713554859161377, 0.12665735185146332, -0.06682241708040237, 0.06171856075525284, -0.0779619812965393, 0.04319753870368004, -0.05789656937122345, 0.1800287663936615, 0.05330232158303261, 0.06107944995164871, 0.04135463014245033, -0.07836688309907913, -0.22361363470554352, -0.11828076094388962, 0.03463461995124817, 0.1621233969926834, 0.08000697940587997, -0.12235692888498306, -0.020334117114543915, -0.11769694089889526, 0.0055268798023462296, 0.023342471569776535, 0.029736312106251717, -0.00037533731665462255, -0.044901683926582336, 0.06691986322402954, -0.12054232507944107, -0.20779691636562347, -0.12008443474769592, -0.06897837668657303, -0.0637674480676651, 0.09014895558357239, -0.028589872643351555, 0.01736714318394661, -0.24538853764533997, 0.10361574590206146, -0.03159068152308464, 0.09334473311901093, 0.10106176882982254, -0.018661322072148323, 0.02866259776055813, -0.026876766234636307, -0.13223643600940704, -0.019576212391257286, -0.07193650305271149, -0.16768907010555267, 0.12241516262292862, 0.06697854399681091, 0.0639045238494873, -0.3118250072002411, 0.03231515735387802, 0.008622802793979645, 0.0845479741692543, -0.03860855475068092, 0.02034035138785839, 0.06445278227329254, -0.040709275752305984, -0.22172017395496368, -0.09839101880788803, -0.03508201241493225, -0.07282113283872604, 0.10904678702354431, -0.12618553638458252, 0.040773749351501465, -0.2420903444290161, 0.15386049449443817, 0.003737394232302904, 0.019866041839122772, 0.06853337585926056, -0.0042932303622365, 0.08530200272798538, -0.05744852498173714, -0.20834651589393616, -0.10040480643510818, -0.07696923613548279, 0.007621088996529579, 0.09802093356847763, -0.09724750369787216, 0.0855259969830513, -0.20250073075294495, 0.16382543742656708, -0.056776389479637146, 0.09280575066804886, -0.01450274046510458, 0.014124469831585884, 0.10032862424850464, -0.02296198531985283, -0.14508266746997833, 0.029637500643730164, -0.11122939735651016, 0.06099371239542961, 0.10303565859794617, -0.005086725577712059, 0.12123614549636841, -0.165582537651062, 0.1958448737859726, 0.006160518620163202, 0.10781150311231613, 0.04845182225108147, 0.005659787449985743, 0.03535071015357971, -0.011494550853967667, -0.19789302349090576, 0.032692801207304, -0.007509547285735607, 0.03713410720229149, 0.061116401106119156, -0.014861296862363815, 0.01952609233558178, -0.2619423568248749, -0.01497729029506445, -0.04028519615530968, 0.12891356647014618, 0.018280915915966034, 0.14620840549468994, 0.031110700219869614, -0.015485277399420738, -0.0626182109117508, -0.018989307805895805, -0.14427171647548676, -0.05596018210053444, 0.006531220860779285, -0.006484639830887318, 0.02239357680082321, -0.1926833838224411, 0.07490155845880508, 0.11533280462026596, 0.016133291646838188, 0.031167704612016678, 0.11140437424182892, -0.057572342455387115, 0.050135742872953415, -0.11529319733381271, -0.012810169719159603, -0.21222826838493347, -0.006349572911858559, 0.02370251715183258, -0.09004221856594086, -0.012955025769770145, -0.18634583055973053, -0.06582009792327881, 0.011114008724689484, -0.008741352707147598, 0.012951767072081566, 0.14212869107723236, 0.14323127269744873, 0.009050538763403893, -0.0053419386968016624, 0.09552178531885147, -0.03731847181916237, 0.061142124235630035, 0.09518817812204361, 0.02614694833755493, 0.04639146104454994, -0.035840488970279694, -0.0048795766197144985, 0.03591489419341087, -0.07876483350992203, -0.04466653987765312, 0.11107353866100311, -0.10379795730113983, 0.023965828120708466, 0.12335208803415298, 0.07017482817173004, -0.16628892719745636, 0.011874009855091572, 0.008102824911475182, 0.0403144545853138, 0.07458199560642242, -0.07030396163463593, -0.06905077397823334, 0.030748434364795685, -0.17077763378620148, 0.039588071405887604, 0.29243436455726624, 0.026219157502055168, 0.09822099655866623, 0.19768814742565155, 0.1840207874774933, -0.28008410334587097, -0.05090458318591118, -0.028423400595784187, 0.09151899814605713, -0.11784999072551727, 0.04272688180208206, -0.1728249490261078, 0.20488914847373962, 0.02735198847949505, 0.16471923887729645, 0.4309408366680145, 0.08508507907390594, 0.042472273111343384, -0.15234261751174927, 0.11724545806646347, -0.4756315350532532, -0.044753022491931915, 0.08755665272474289, 0.16872578859329224, -0.41222095489501953, -0.011625231243669987, -0.2647123634815216, 0.23421941697597504, 0.20734712481498718, 0.4104583263397217, 0.7148792147636414, 0.20267215371131897, 0.12674833834171295, -0.27354225516319275, 0.017986904829740524, -0.3680168092250824, 0.015540498308837414, 0.12557631731033325, 0.3385147452354431, -0.4987514913082123, 0.09889169782400131, -0.03023711033165455, 0.5439375638961792, 0.19236628711223602, 0.4384820759296417, 0.44380131363868713, 0.2423747330904007, 0.38023641705513, -0.1808823049068451, 0.01669967919588089, 0.012345599010586739, -0.1683427095413208, 0.0552695207297802, 0.17660582065582275, -0.14689527451992035, -0.037780776619911194, 0.05347585678100586, 0.44526222348213196, 0.1351681351661682, 0.23729071021080017, 0.0017702305922284722, -0.002305808011442423, 0.26737985014915466, -0.03596055507659912, -0.007648006547242403, 0.051758989691734314, -0.08889275789260864, 0.014953137375414371, 0.26729273796081543, 0.04741353541612625, 0.014205677434802055, -0.06107961758971214, 0.21727751195430756, -0.019384965300559998, 0.06049475073814392, -0.048774197697639465, -0.033771831542253494, 0.07727332413196564, 0.029141217470169067, 0.07939565926790237, -0.026201944798231125, 0.056476347148418427, 0.02462659776210785, -0.03259310498833656, 0.000852203113026917, -0.009961351752281189, -0.053989920765161514, -0.04760991036891937, 0.03808115795254707, 0.08645989000797272, -0.03201720118522644, 0.13801346719264984, -0.029312863945961, -0.00969176646322012, 0.006317530758678913, -0.046250466257333755, 0.24149632453918457, 0.012939829379320145, 0.005162220448255539, 0.17820443212985992, 0.05229821428656578, -0.030262021347880363, -0.02113347314298153, 0.2568719983100891, -0.08477198332548141, -0.017975417897105217, 0.15779529511928558, 0.09890738129615784, 0.11466900259256363, 0.04485874995589256, 0.00459454907104373, 0.4647097587585449, 0.35008323192596436, -0.0335618294775486, 0.16720189154148102, -0.0054033063352108, 0.05215883255004883, 0.014455001801252365, 0.1064704954624176, 0.3625018000602722, -0.11668635904788971, 0.1795283406972885, -0.026918353512883186, 0.06422410160303116, 0.10315000265836716, -0.2033180445432663, 0.47073009610176086, 0.3570420444011688, -0.03941022604703903, 0.17744794487953186, 0.06642286479473114, 0.025944199413061142, -0.25429922342300415, 0.3839867413043976, 0.36514386534690857, -0.2627703845500946, 0.28325486183166504, 0.2347739040851593, 0.13968290388584137, 0.15548095107078552, -0.061502985656261444, 0.11574181169271469, -0.03460318595170975, -0.23806451261043549, 0.10171864181756973, 0.12025519460439682, -0.030397921800613403, -0.255799263715744, 0.10302115976810455, 0.23397278785705566, -0.054126568138599396, 0.013801408931612968, -0.07587672770023346, 0.10905894637107849, 0.03870653361082077, -0.11085048317909241, 0.10279060155153275, -0.09864242374897003, -0.08408929407596588, 0.06739076972007751, -0.10560017824172974, 0.012073815800249577, -0.09714218974113464, -0.000881556305103004, 0.023496296256780624, -0.12002880126237869, 0.021752238273620605, -0.0756237655878067, -0.022366678342223167, -0.05850805714726448, -0.17868073284626007, 0.19653484225273132, -0.02040584199130535, 0.06010559946298599, 0.1777196079492569, -0.05378827825188637, -0.24434715509414673, -0.12277376651763916, 0.072186179459095, -0.024762490764260292, 0.06037706881761551, -0.0031104309018701315, -0.09170211851596832, -0.09415271133184433, -0.09920088201761246, 0.01762421242892742, 0.11297237128019333, -0.054339177906513214, 0.057334885001182556, 0.09622304141521454, 0.020702295005321503, -0.16712719202041626, -0.09273079037666321, -0.02302650362253189, 0.10957533121109009, 0.01389402523636818, 0.05246804654598236, -0.31272923946380615, -0.1474371701478958, -0.03052380308508873, -0.011221765540540218, 0.16251851618289948, 0.01015691738575697, -0.06327038258314133, -0.05046560987830162, -0.043613411486148834, -0.1837746649980545, 0.11970636993646622, 0.016975054517388344, -0.0057235462591052055, 0.062199342995882034, -0.03603855147957802, -0.11805139482021332, -0.048322729766368866, 0.01940569281578064, -0.11164689809083939, 0.1257273256778717, 0.020432621240615845, 0.04155506566166878, 0.054831329733133316, -0.11907380819320679, 0.046711165457963943, 0.033104609698057175, -0.026987409219145775, 0.03880579024553299, 0.08414866775274277, 0.015559786930680275, -0.13487523794174194, -0.05215732753276825, -0.03953436762094498, -0.0738309919834137, 0.07480055838823318, 0.07988666743040085, 0.10602693259716034, 0.1939823180437088, -0.15052169561386108, -0.05019301548600197, 0.05127650499343872, -0.059623539447784424, 0.12407012283802032, 0.02841755375266075, 0.03745822235941887, 0.005414905492216349, -0.11062043905258179, 0.034367650747299194, -0.02958988957107067, 0.022384455427527428, -0.03466271609067917, 0.13557736575603485, 0.12228690832853317, -0.10226378589868546, 0.046855270862579346, -0.0420798696577549, -0.06464441120624542, 0.05827071890234947, -0.05104587599635124, -0.014644792303442955, 0.11601562052965164, -0.15535657107830048, -0.054913658648729324, -0.07591447979211807, 0.041821397840976715, 0.12832537293434143, 0.02803626097738743, 0.04914847016334534, -0.16043515503406525, 0.018254809081554413, -0.04557512700557709, 0.09987641125917435, 0.08882454037666321, -0.06425189226865768, 0.059892117977142334, -0.03622877970337868, -0.15232346951961517, 0.060714203864336014, 0.03196446970105171, 0.00837902631610632, 0.08143302798271179, -0.02060665749013424, 0.09370046108961105, -0.09166739135980606, 0.06369288265705109, -0.04798494651913643, 0.1837048977613449, 0.17414894700050354, 0.07087189704179764, 0.03239124268293381, -0.007590748369693756, -0.08935196697711945, -0.14345833659172058, 0.00623428076505661, -0.028812509030103683, 0.13607241213321686, 0.033130157738924026, 0.10539679229259491, -0.1755189299583435, 0.0644885003566742, -0.05250978842377663, 0.10936630517244339, -0.007975788787007332, -0.03295430168509483, -0.044186849147081375, -0.07338975369930267, -0.09681734442710876, -0.10771436989307404, -0.09334761649370193, -0.10585133731365204, 0.08289042860269547, -0.09121876209974289, -0.02607421949505806, -0.25919875502586365, 0.22489039599895477, 0.052085332572460175, 0.08596495538949966, 0.033792588859796524, 0.015683423727750778, -0.07005275040864944, 0.003497140947729349, -0.23581036925315857, -0.07471319288015366, -0.07460967451334, -0.004141621291637421, 0.14108556509017944, 0.015570491552352905, 0.06720677018165588, -0.24498005211353302, 0.13789528608322144, -0.05883855000138283, 0.14075110852718353, 0.09952503442764282, 0.09908415377140045, -0.02465856820344925, 0.005225576926022768, -0.017766159027814865, -0.00781248277053237, -0.04144194349646568, 0.005018753465265036, 0.1310288906097412, 0.0043287016451358795, -0.007571406662464142, -0.13926230370998383, 0.13399553298950195, -0.001920059323310852, 0.0659463107585907, 0.06300021708011627, 0.1506573110818863, 0.10891000181436539, -0.026356015354394913, -0.030476002022624016, 0.03386169672012329, -0.048912275582551956, 0.0835561752319336, 0.05312717705965042, 0.05198237672448158, 0.0898868516087532, -0.28097787499427795, -0.028644617646932602, 0.11265028268098831, 0.058709971606731415, 0.04977397620677948, 0.20822307467460632, -0.006930881645530462, -0.016734736040234566, -0.0637066587805748, -0.04811025410890579, -0.007837481796741486, 0.06256067752838135, -0.05826050043106079, 0.07612676173448563, 0.15727217495441437, -0.13718080520629883, -0.06587041914463043, 0.0315479077398777, 0.005458939354866743, 0.01779082417488098, 0.2977723777294159, -0.006378317717462778, 0.07659079879522324, -0.03615107759833336, 0.024454396218061447, -0.14012384414672852, -0.01738082244992256, 0.0994439497590065, 0.016592450439929962, 0.09616700559854507, -0.09212847799062729, -0.05502362176775932, -0.014707372523844242, -0.03374452516436577, 0.0787966400384903, 0.24798481166362762, 0.05563042312860489, 0.1197669580578804, -0.04947030916810036, -0.012486811727285385, -0.08972956985235214, -0.02565501444041729, 0.043222516775131226, 0.014496714808046818, 0.12403181940317154, -0.04212046414613724, -0.07834886759519577, 0.102376788854599, -0.0581161268055439, 0.04376997798681259, 0.264634907245636, 0.04127592220902443, 0.16681386530399323, 0.05998554825782776, 0.07067858427762985, 0.037111472338438034, 0.11646536737680435, -0.008814588189125061, 0.04875427484512329, 0.08914152532815933, 0.07603638619184494, -0.09901479631662369, 0.05333055555820465, -0.0921749696135521, 0.03505253419280052, 0.029039230197668076, -0.022513005882501602, 0.11305686831474304, 0.06711839139461517, 0.039192646741867065, -0.28715261816978455, -0.02282944694161415, -0.10850530117750168, 0.08835549652576447, -0.06745033711194992, -0.044134896248579025, -0.10829079151153564, 0.18479298055171967, -0.12462091445922852, 0.21772022545337677, 0.3411887586116791, 0.030186783522367477, 0.1482987403869629, -0.07065927982330322, 0.04834602773189545, -0.597983717918396, -0.00397118367254734, 0.005827166140079498, 0.18799486756324768, -0.4258720576763153, 0.0718982145190239, -0.20729577541351318, 0.2971092462539673, -0.03685223311185837, 0.5649181008338928, 0.48476600646972656, 0.025069180876016617, 0.15305399894714355, -0.38316813111305237, 0.04542035609483719, -0.3440519869327545, -0.1663847416639328, 0.11918717622756958, 0.282479852437973, -0.5729408860206604, -0.12906531989574432, -0.3167637586593628, 0.48298409581184387, 0.20927949249744415, 0.5055957436561584, 0.5199213624000549, 0.3323192000389099, 0.2283974140882492, -0.04542631655931473, 0.16855663061141968, -0.0800631120800972, -0.04845655709505081, 0.2802227735519409, 0.12707632780075073, -0.2721186876296997, -0.03230989724397659, -0.0061908746138215065, 0.19013535976409912, 0.28742122650146484, 0.2020295113325119, 0.13902167975902557, 0.06536588072776794, 0.2797655165195465, -0.12480200827121735, -0.1482093781232834, 0.003946751821786165, 0.0182366743683815, -0.0005042527336627245, 0.16290755569934845, 0.053390055894851685, 0.028883423656225204, 0.045260246843099594, 0.1903223991394043, -0.005805727560073137, -0.004134573042392731, 0.023967936635017395, 0.04440642520785332, 0.05185632407665253, 0.024511706084012985, 0.025671668350696564, -0.00850704312324524, -0.0864008292555809, -0.03961127623915672, 0.06632549315690994, 0.12031562626361847, 0.0882880762219429, 0.010241564363241196, -0.05362730473279953, -0.0904885083436966, 0.0007715347455814481, 0.03900304064154625, 0.2252570539712906, -0.06711910665035248, -0.11644822359085083, -0.07021696120500565, -0.028653444722294807, 0.39827021956443787, 0.25696784257888794, 0.045219700783491135, 0.22905950248241425, 0.06725252419710159, -0.039095211774110794, -0.01851433701813221, 0.10296168178319931, -0.1234874427318573, -0.17333540320396423, 0.17725703120231628, 0.09131069481372833, 0.0371306836605072, -0.10156872868537903, 0.08344859629869461, 0.6403732895851135, 0.42809343338012695, 0.13526363670825958, 0.31521299481391907, -0.11424143612384796, 0.142593652009964, -0.07929641008377075, -0.0975569561123848, 0.2604202628135681, -0.21390993893146515, 0.1432429403066635, 0.09010837227106094, -0.007366653997451067, -0.010212738066911697, -0.0673188865184784, 0.4364859163761139, 0.4133630394935608, -0.07313204556703568, 0.24643100798130035, -0.1394590586423874, -0.037212055176496506, -0.2626153528690338, 0.22123181819915771, 0.42114946246147156, -0.27261629700660706, 0.27493295073509216, 0.11195787787437439, -0.07258983701467514, 0.09692120552062988, 0.0691264197230339, 0.07381049543619156, 0.12928970158100128, -0.2625087797641754, 0.08268564194440842, 0.015292621217668056, -0.2226167768239975, -0.16183869540691376, 0.12168940156698227, 0.24070419371128082, -0.07411148399114609, 0.06847801059484482, 0.07578583061695099, 0.021724212914705276, 0.041068051010370255, -0.020552977919578552, -0.042414918541908264, 0.023309923708438873, -0.014877421781420708, -0.015467261895537376, -0.02127210609614849, -0.3143567740917206, -0.0069869873113930225, -0.09317848086357117, 0.1380677968263626, -0.09212755411863327, 0.05570123344659805, -0.19863170385360718, -0.03573473170399666, 0.09883298724889755, -0.05949262157082558, 0.11314565688371658, -0.035814255475997925, 0.07334305346012115, -0.06461548060178757, -0.08088723570108414, -0.08755257725715637, 0.1172247976064682, -0.0023892284370958805, 0.012922342866659164, -0.16629469394683838, 0.018082331866025925, -0.04286044090986252, 0.13727325201034546, -0.019526127725839615, -0.09474396705627441, 0.20930270850658417, -0.038365889340639114, -0.054447490721940994, -0.008346175774931908, -0.08880774676799774, -0.13214841485023499, -0.015338863246142864, 0.011163068935275078, 0.09673166275024414, 0.002597364829853177, 0.0012338492088019848, -0.1628810614347458, -0.10106673091650009, 0.038051847368478775, -0.10340419411659241, 0.17456409335136414, 0.0861009880900383, 0.12878450751304626, 0.06341125816106796, -0.08707276731729507, 0.004132687114179134, -0.01354977861046791, -0.04547726735472679, -0.0032142261043190956, 0.02150462381541729, -0.014869634993374348, -0.1349795013666153, -0.014671096578240395, 0.12880964577198029, -0.11192181706428528, 0.09670738875865936, 0.12077636271715164, 0.03588971868157387, 0.04505116492509842, -0.011930376291275024, -0.050249919295310974, 0.11147353798151016, -0.04897881671786308, 0.09406141191720963, -0.037929486483335495, 0.08771935850381851, -0.09084650129079819, -0.1012476310133934, -0.007709310855716467, 0.04214226081967354, 0.1883804202079773, 0.022941404953598976, 0.08168188482522964, 0.06689497083425522, 0.008001597598195076, -0.04211844503879547, 0.020367329940199852, -0.013607006520032883, 0.006893832236528397, 0.10323964059352875, 0.0019988608546555042, -0.11008649319410324, -0.056556250900030136, -0.029407938942313194, 0.004218820948153734, 0.10105245560407639, 0.06923507153987885, 0.03753960505127907, 0.021456493064761162, -0.06843133270740509, -0.0760202631354332, 0.01889907754957676, -0.027101656422019005, 0.14432471990585327, -0.017800437286496162, 0.07847152650356293, -0.03327638655900955, -0.14276835322380066, -0.048559222370386124, -0.11559896916151047, 0.0009224128443747759, 0.03203865513205528, 0.15997333824634552, 0.1306292563676834, -0.1080925464630127, 0.04395812749862671, -0.03298978507518768, 0.07725118845701218, 0.04300789162516594, -0.021542344242334366, 0.12479216605424881, 0.12089520692825317, -0.07683621346950531, -0.013689307495951653, -0.03088608756661415, -0.045332908630371094, 0.009602205827832222, 0.015647122636437416, 0.015614147298038006, -0.09759745001792908, 0.06543295830488205, -0.0072860317304730415, 0.05618813633918762, 0.05930903181433678, -0.10041867941617966, 0.0729576125741005, 0.0752350464463234, -0.11564671993255615, -0.09260857850313187, 0.017825111746788025, -0.12202285975217819, 0.05611459165811539, 0.0151975704357028, 0.18285822868347168, -0.25117745995521545, 0.03901553526520729, -0.0742139145731926, 0.1308268904685974, 0.004778908099979162, -0.04772792011499405, 0.047356169670820236, -0.03164363652467728, -0.16952195763587952, -0.11922341585159302, 0.058048658072948456, 0.02695157378911972, 0.05397886782884598, 0.031075410544872284, 0.23236241936683655, -0.20300783216953278, 0.09980583935976028, -0.018533049151301384, 0.12006185203790665, -0.044096410274505615, -0.0295695960521698, -0.05537724122405052, -0.04050262272357941, -0.1380268782377243, -0.10477468371391296, -0.08301591873168945, -0.024367978796362877, -0.020466824993491173, 0.11173630505800247, 0.197097048163414, -0.18279312551021576, 0.07121942192316055, 0.10652080923318863, 0.07278485596179962, 0.039657194167375565, -0.019071463495492935, 0.005459032487124205, -0.019031450152397156, -0.029207592830061913, 0.0034866370260715485, -0.05437065288424492, 0.014314571395516396, -0.04094899818301201, 0.033605821430683136, 0.18836763501167297, -0.16449350118637085, -0.035897668451070786, -0.03001962974667549, 0.04550512135028839, 0.0907115489244461, -0.03093750774860382, -0.07072856277227402, 0.05841474607586861, -0.14871539175510406, 0.07883159071207047, -0.08600056171417236, 0.10404924303293228, -0.042830243706703186, 0.05438671261072159, 0.10650912672281265, -0.218837171792984, -0.14573773741722107, 0.05699753388762474, -0.015425828285515308, 0.00492959376424551, -0.24591705203056335, 0.05816587433218956, 0.1500718593597412, -0.08996105194091797, 0.07434239983558655, -0.030555447563529015, -0.08437024801969528, -0.03794920817017555, 0.06465140730142593, 0.01731625199317932, -0.044998105615377426, -0.10565465688705444, 0.1055072620511055, 0.004524859134107828, 0.06391424685716629, -0.27803826332092285, -0.024400414898991585, 0.18729524314403534, -0.0768948495388031, -0.03234915807843208, -0.026543891057372093, 0.03157535195350647, 0.023086275905370712, 0.12144369632005692, 0.09797388315200806, -0.0733107253909111, -0.0824875459074974, 0.04283687472343445, -0.06358041614294052, 0.004412582144141197, -0.32687339186668396, -0.08482254296541214, 0.2504987120628357, -0.1618233025074005, 0.0039862836711108685, -0.10968106240034103, -0.05056357383728027, -0.11641547828912735, 0.08682611584663391, -0.03617605194449425, -0.1339017152786255, -0.057528525590896606, 0.14479480683803558, 0.013192780315876007, 0.09505562484264374, -0.48049524426460266, 0.05834099277853966, 0.09709995985031128, -0.02976256050169468, 0.008553145453333855, -0.18628567457199097, -0.04015147313475609, -0.11823230236768723, -0.03069937229156494, -0.03543908894062042, -0.19730329513549805, -0.12803630530834198, 0.04180462658405304, 0.10699322074651718, 0.12286403030157089, -0.35645171999931335, -0.0915616899728775, 0.11781047284603119, -0.05749989673495293, 0.02013593167066574, -0.2703697383403778, 0.08392830193042755, -0.08992770314216614, 0.15207058191299438, 0.08796441555023193, -0.05337921157479286, -0.17567409574985504, 0.14651282131671906, -0.1721884310245514, 0.4342876970767975, -0.31487929821014404, 0.03639679402112961, 0.28086599707603455, -0.37455758452415466, 0.09593837708234787, -0.7706312537193298, -0.03469788655638695, -0.006754448637366295, 0.17375358939170837, -0.33339694142341614, -0.2178947925567627, -0.11044346541166306, 0.48091253638267517, 0.04824383184313774, 0.7314580678939819, 0.18212957680225372, 0.1556597352027893, 0.38701486587524414, -0.34601157903671265, 0.022126153111457825, -0.37614819407463074, -0.14870311319828033, 0.17947103083133698, 0.20813946425914764, -0.5493294596672058, -0.29840317368507385, -0.08478398621082306, 0.7365948557853699, 0.1428350806236267, 0.5207023620605469, 0.20268258452415466, 0.28431373834609985, 0.28552621603012085, -0.20974873006343842, -0.0046279896050691605, -0.0012865981552749872, -0.16142700612545013, 0.26756998896598816, 0.1159820705652237, -0.23271098732948303, -0.18466180562973022, -0.004807407967746258, 0.49196964502334595, 0.07954752445220947, 0.1464868038892746, 0.03371189534664154, 0.1275852918624878, 0.16331416368484497, -0.13884887099266052, -0.06730794906616211, 0.08977548032999039, 0.028454910963773727, 0.07059891521930695, 0.13580511510372162, -0.09087057411670685, -0.029467502608895302, 0.08228759467601776, 0.20271389186382294, 0.1337621510028839, 0.011759101413190365, -0.0006479173898696899, 0.08831005543470383, 0.08558416366577148, -0.023450614884495735, -0.06052175536751747, 0.02374860644340515, 0.044080574065446854, 0.13128677010536194, -0.05813194438815117, 0.07516849040985107, 0.06425654888153076, -0.013421568088233471, 0.07216649502515793, -0.02843751199543476, 0.05496576428413391, -0.09259556233882904, 0.2829797863960266, -0.029082348570227623, -0.13454942405223846, -0.13208727538585663, -0.0002321074716746807, 0.5549701452255249, 0.3246707618236542, -0.011770367622375488, 0.38960009813308716, -0.0706019252538681, -0.0005166970659047365, 0.017268963158130646, 0.0178928691893816, 0.07027623802423477, -0.17159810662269592, 0.2829473316669464, -0.03869226202368736, -0.06704767048358917, -0.12983964383602142, 0.02324589714407921, 0.6935628056526184, 0.4318712651729584, 0.09794622659683228, 0.41790783405303955, -0.05450219660997391, 0.09502214938402176, -0.060873135924339294, -0.08654404431581497, 0.340075820684433, -0.06537825614213943, 0.3280418813228607, -0.0358620285987854, -0.10417889803647995, -0.02514057420194149, -0.026311472058296204, 0.4601103663444519, 0.3528760075569153, -0.07415837049484253, 0.21809537708759308, -0.0643220916390419, -0.04141296073794365, -0.25001999735832214, 0.24383331835269928, 0.3060131371021271, -0.2205999791622162, 0.21701666712760925, 0.014488723129034042, -0.20164594054222107, -0.03942791000008583, -0.13396529853343964, 0.08105885982513428, 0.027031492441892624, -0.08297497779130936, 0.15643411874771118, -0.06549330055713654, -0.21464136242866516, -0.08282136172056198, 0.11232727766036987, 0.15474815666675568, -0.29223141074180603, 0.26566582918167114, 0.011877131648361683, -0.07583436369895935, 0.11661405116319656, -0.026778297498822212, 0.05057341977953911, -0.03865807130932808, 0.06173210218548775, 0.15586309134960175, -0.16262061893939972, -0.1173040047287941, -0.013407636433839798, 0.05699505656957626, 0.09634830802679062, -0.11582693457603455, 0.07316328585147858, -0.19743846356868744, -0.0970970168709755, 0.017699256539344788, -0.16190554201602936, 0.1405174881219864, 0.05185982212424278, -0.011751338839530945, -0.08758287131786346, -0.15391314029693604, -0.003719897475093603, -0.018505169078707695, 0.13160575926303864, -0.006895599886775017, 0.021588215604424477, 0.07708461582660675, 0.040404919534921646, -0.046812307089567184, 0.03182819113135338, 0.020980844274163246, 0.10608207434415817, 0.11884938925504684, -0.15008944272994995, 0.008298436179757118, -0.16621826589107513, -0.11874821037054062, -0.019868744537234306, 0.03282960504293442, 0.030301472172141075, 0.09748117625713348, 0.06465320289134979, -0.07944757491350174, -0.1251729279756546, 0.06419599056243896, -0.033874910324811935, 0.04039102420210838, -0.03148961439728737, 0.014973397366702557, -0.10397110134363174, -0.07495579123497009, -0.07488921284675598, 0.03313148021697998, 0.017893923446536064, -0.028252216055989265, -0.02657393552362919, 0.12945210933685303, -0.029750389978289604, -0.18511098623275757, 0.07712774723768234, -0.007882018573582172, 0.08747217804193497, 0.04533512890338898, 0.06900674849748611, -0.0035932378377765417, -0.11963347345590591, -0.004615606740117073, 0.10450822114944458, -0.0007470403797924519, -0.202635258436203, -0.03574344515800476, 0.021350504830479622, -0.07285436987876892, -0.1475454717874527, 0.05531990900635719, 0.0016077150357887149, 0.0533830001950264, 0.09162715822458267, 0.13757270574569702, -0.0006013777456246316, -0.1574743092060089, -0.040485929697752, 0.14797577261924744, 0.07381723076105118, -0.22565121948719025, 0.049611423164606094, 0.011351696215569973, 0.0065870643593370914, -0.1570519506931305, 0.08344925194978714, -0.012750011868774891, 0.017946070060133934, 0.07622545957565308, 0.053038306534290314, -0.027776647359132767, -0.11435049027204514, -5.1872149924747646e-05, 0.13605087995529175, -0.03548729047179222, -0.22694790363311768, 0.027953295037150383, 0.09525119513273239, -0.032331474125385284, -0.13083525002002716, -0.047711487859487534, 0.019367847591638565, 0.11859714239835739, 0.10502953082323074, 0.0923069640994072, -0.0006306376890279353, -0.11471400409936905, 0.03462452068924904, -0.019166555255651474, 0.012801415286958218, -0.1802271455526352, -0.2235615849494934, 0.11183245480060577, 0.016939835622906685, -0.11938417702913284, 0.07168836146593094, 0.023948241025209427, -0.0194819588214159, 0.09711983054876328, 0.14755882322788239, 0.0002836993080563843, -0.10454795509576797, 0.07800442725419998, -0.23727554082870483, 0.014155972748994827, -0.07319695502519608, -0.15650439262390137, 0.11538614332675934, 0.05230250209569931, -0.1300240159034729, -0.18968895077705383, 0.07111924886703491, 0.14199198782444, 0.07976628839969635, -0.013067001476883888, 0.09310831129550934, -0.10543884336948395, -0.07641800493001938, -0.35391855239868164, 0.1262168139219284, 0.039145078510046005, -0.4233394265174866, 0.032322369515895844, 0.01022508554160595, -0.077252097427845, -0.09940554201602936, 0.005974713247269392, 0.11066948622465134, 0.054522350430488586, -0.04510493203997612, 0.10585358738899231, -0.3473644554615021, -0.15937715768814087, -0.17123723030090332, 0.03227532282471657, 0.011338356882333755, -0.5629756450653076, 0.026688527315855026, 0.029342053458094597, -0.08699186891317368, 0.03991620987653732, -0.03462721034884453, 0.019364314153790474, 0.05023906007409096, -0.030100824311375618, 0.21035900712013245, -0.1854405403137207, -0.08814863115549088, 0.09072821587324142, 0.07181782275438309, -0.07661516219377518, -0.8833451867103577, 0.09718537330627441, 0.04226210340857506, -0.019493067637085915, 0.08795852959156036, -0.047359537333250046, 0.10018280148506165, 0.12318277359008789, 0.09248599410057068, 0.24779146909713745, -0.19162878394126892, 0.026878634467720985, 0.009768599644303322, 0.07075908035039902, 0.03483062610030174, -1.1209330558776855, -0.020061446353793144, 0.04580707103013992, -0.10723040997982025, 0.0605723075568676, -0.1425047069787979, 0.02096264250576496, 0.05843566358089447, 0.07099536806344986, 0.12653236091136932, -0.13760757446289062, -0.06603994220495224, -0.08342589437961578, -0.03734637424349785, 0.04932563379406929, -1.3284196853637695, -0.01643538661301136, -0.0007860187324695289, -0.0991576686501503, 0.007579568307846785, -0.11185750365257263, 0.06145021691918373, -0.012705073691904545, 0.03075573220849037, 0.19547881186008453, -0.028640203177928925, -0.04319961369037628, 0.010218686424195766, -0.09812664985656738, 0.05611850321292877, -1.3552285432815552, -0.0054590171203017235, 0.04101552441716194, -0.006203390657901764, 0.12089654058218002, -0.07946846634149551, 0.032104652374982834, -0.010316086933016777, -0.07714034616947174, 0.0005897498922422528, -0.10760635137557983, 0.05606888607144356, 0.06038075312972069, 0.07622630894184113, 0.01768839918076992, -1.3564519882202148, -0.08669311553239822, 0.2200608253479004, -0.07054364681243896, 0.01760599948465824, -0.1592777669429779, 0.02026066929101944, -0.057243384420871735, 0.004015987738966942, -0.09094060212373734, -0.03962995857000351, -0.056758273392915726, 0.08603150397539139, -0.096539705991745, 0.09911938011646271, -1.3412766456604004, 0.04246371239423752, 0.0862521156668663, -0.15823642909526825, -0.02499711886048317, -0.19824492931365967, 0.07204800844192505, -0.0665072500705719, -0.11572190374135971, 0.06449242681264877, -0.1428736299276352, -0.11529280245304108, 0.18540742993354797, 0.010253655724227428, 0.1427675485610962, -1.0552235841751099, 0.06965667009353638, 0.19221585988998413, -0.14647603034973145, -0.06552710384130478, -0.22622323036193848, 0.025477953255176544, -0.2215629518032074, 0.14675147831439972, 0.11569268256425858, -0.09339078515768051, -0.013931218534708023, 0.20843133330345154, 0.0016870730323716998, 0.4904859662055969, -0.6893564462661743, -0.044560763984918594, 0.49245601892471313, -0.48247089982032776, -0.03164391964673996, -0.6492977142333984, -0.07932240515947342, -0.023082837462425232, 0.44972240924835205, -0.043368276208639145, -0.3972407281398773, -0.013254288583993912, 0.5331044793128967, 0.08804673701524734, 0.7245994210243225, -0.2042059451341629, 0.26637086272239685, 0.6593994498252869, -0.3939986824989319, 0.029840240254998207, -0.24351227283477783, -0.19980017840862274, 0.08000104874372482, 0.3723008632659912, -0.5921661257743835, -0.2640025019645691, -0.20734676718711853, 0.846420407295227, 0.18943838775157928, 0.3828968107700348, 0.23415446281433105, 0.4022828936576843, 0.43139031529426575, -0.3839249908924103, -0.06271716952323914, -0.08797244727611542, -0.08641990274190903, -0.04768811911344528, 0.36367276310920715, -0.37419214844703674, -0.34694814682006836, -0.08765706419944763, 0.7706890106201172, 0.22384753823280334, 0.0964992418885231, -0.005419415421783924, 0.04984143748879433, 0.12163046002388, -0.14625954627990723, 0.04333772510290146, 0.028420617803931236, -0.07305577397346497, -0.028771154582500458, 0.12737156450748444, 0.03609849885106087, -0.05821136757731438, -0.028721120208501816, 0.31912219524383545, 0.09755320847034454, -0.032307207584381104, 0.037713393568992615, -0.03929764777421951, -0.043106526136398315, -0.05708632245659828, 0.0030042389407753944, -0.02650241181254387, 0.06683583557605743, 0.1093023419380188, -0.06813351809978485, -0.028813598677515984, -0.024225255474448204, 0.07782892137765884, 0.05654146522283554, 0.07282067090272903, 0.023148491978645325, -0.14260758459568024, 0.19773507118225098, 0.03712080419063568, -0.14363953471183777, -0.0966232642531395, 0.12857596576213837, 0.5571048855781555, 0.3668961226940155, 0.025279225781559944, 0.39146843552589417, -0.05683959648013115, 0.12602056562900543, -0.04682183265686035, -0.010376710444688797, 0.10303148627281189, 0.0023833788000047207, 0.2678702473640442, -0.012047190219163895, -0.15789203345775604, -0.13515987992286682, 0.026988040655851364, 0.5044568777084351, 0.4863690435886383, 0.10737497359514236, 0.44414567947387695, -0.05755040422081947, -0.0976434275507927, -0.1311873346567154, 0.016188612207770348, 0.3699739873409271, -0.19959966838359833, 0.12857022881507874, -0.11517510563135147, -0.32375362515449524, -0.139656201004982, -0.015663906931877136, 0.2732965648174286, 0.30195361375808716, -0.09317430108785629, 0.09567449241876602, -0.016260458156466484, -0.09206775575876236, -0.24150840938091278, 0.3834323287010193, 0.2047654539346695, -0.03407025709748268, 0.1715751737356186, 0.027848565950989723, -0.08490846306085587, 0.06969878822565079, -0.2314256876707077, 0.15987011790275574, -0.17645245790481567, 0.07082478702068329, -0.01539586205035448, -0.17538878321647644, -0.10815852880477905, 0.07350782305002213, 0.062160227447748184, 0.0026949807070195675, -0.12300591915845871, 0.27286496758461, -0.1430264413356781, -0.15483170747756958, -0.049149077385663986, -0.02453705295920372, 0.1998559683561325, 0.029399577528238297, 0.21742486953735352, 0.09514547884464264, -0.015425486490130424, -0.04806932806968689, -0.05879949778318405, -0.04481523856520653, -0.2691822350025177, -0.02142050862312317, 0.1608494073152542, -0.1929670125246048, -0.15609577298164368, -0.04331608861684799, 0.05422408506274223, 0.028746385127305984, -0.027704792097210884, -0.01554736215621233, -0.15023227035999298, -0.15958736836910248, -0.06596498936414719, -0.03414803743362427, 0.12111616879701614, -0.2763669788837433, 0.05958696827292442, 0.041287969797849655, -0.1334863156080246, -0.05879957973957062, -0.009942596778273582, -0.08771015703678131, -0.09738457202911377, -0.010791128501296043, 0.07207918912172318, -0.10821280628442764, -0.030114665627479553, -0.1063905730843544, 0.006469914223998785, 0.017651086673140526, -0.3040980398654938, 0.186553493142128, 0.156039297580719, -0.1416969746351242, -0.09142439812421799, 0.0409223847091198, -0.09136442840099335, -0.129302978515625, 0.03068028949201107, 0.06270148605108261, -0.0824013277888298, -0.04904650151729584, -0.07116387039422989, 0.08566349744796753, -0.04175509884953499, -0.4105946719646454, 0.11689446866512299, 0.040584661066532135, 0.03168829530477524, -0.1483183056116104, 0.08572416752576828, -0.09571412950754166, 0.0383530892431736, -0.02345219813287258, 0.14739979803562164, -0.07138219475746155, -0.10128971189260483, 0.06700821965932846, 0.039488762617111206, -0.04726165160536766, -0.3574548065662384, 0.005524881184101105, 0.04500659927725792, 0.07125861197710037, -0.0526244230568409, 0.03984355553984642, -0.05866999179124832, 0.08642937242984772, 0.05417850241065025, 0.16955344378948212, -0.13077539205551147, -0.14038072526454926, 0.07963132113218307, 0.14365535974502563, -0.024182302877306938, -0.3390166759490967, 0.008905147202312946, 0.02654312551021576, -0.0163868460804224, -0.06463918089866638, 0.0363464318215847, -0.06982601433992386, 0.03698747605085373, 0.019546009600162506, 0.19902728497982025, -0.04182549938559532, -0.04015479236841202, 0.013718544505536556, 0.16670697927474976, -0.10344342142343521, -0.40018367767333984, -0.0666099339723587, -0.0734204575419426, 0.08530470728874207, -0.07664645463228226, 0.12698280811309814, -0.11330410093069077, 0.09035969525575638, 0.03946997970342636, 0.1467546969652176, -0.17307406663894653, -0.0038807187229394913, 0.023712370544672012, 0.17577606439590454, -0.13133323192596436, -0.15127794444561005, -0.11797340959310532, -0.19339194893836975, 0.09120744466781616, -0.07567480206489563, -0.10825538635253906, -0.23038513958454132, 0.15675890445709229, 0.03630769997835159, 0.13065315783023834, -0.05169232562184334, 0.013745816424489021, 0.03239581361413002, -0.20633035898208618, -0.06605865061283112, -0.13786226511001587, -0.13332970440387726, -0.13853208720684052, 0.08742915838956833, -0.049504879862070084, -0.4818899631500244, -0.07605540752410889, -0.047995176166296005, -0.015642670914530754, -0.008621148765087128, -0.11603371798992157, -0.17301902174949646, -0.1380416452884674, -0.5095440745353699, 0.057980239391326904, -0.16395187377929688, -0.12231269478797913, -0.03494353964924812, 0.011251150630414486, 0.0323190875351429, -0.038363855332136154, -0.07911550998687744, 0.11458484828472137, 0.06516312807798386, -0.08500764518976212, 0.014504031278192997, -0.2819541096687317, -0.3467075824737549, -0.37755724787712097, 0.08441375941038132, -0.014011218212544918, -0.06083561107516289, 0.004027669318020344, -0.038443028926849365, -0.17158488929271698, 0.10654564946889877, -0.028486978262662888, 0.19698980450630188, 0.03146590664982796, -0.03903735801577568, 0.21541957557201385, -0.06968562304973602, -0.1325414776802063, -0.1770726442337036, 0.0013448988320305943, -0.10301200300455093, -0.23901334404945374, 0.06617187708616257, -0.07266099005937576, -0.03139275312423706, 0.04902433231472969, -0.007493757642805576, 0.15124234557151794, 0.026278147473931313, 0.05237166956067085, 0.31923559308052063, 0.04759712517261505, -0.012452888302505016, -0.15511499345302582, 0.0705251470208168, -0.12071118503808975, -0.39315301179885864, 0.10497899353504181, -0.11202197521924973, -0.031523220241069794, 0.0567190945148468, -0.0991329774260521, 0.07205595821142197, 0.06491287052631378, 0.1250053495168686, 0.18348170816898346, -0.05218129977583885, 0.15942135453224182, -0.12310303747653961, -0.007514389231801033, -0.10908529907464981, -0.3759041130542755, -0.006704934407025576, -0.20159195363521576, -0.04799111559987068, -0.016939103603363037, -0.1587490439414978, 0.05348603427410126, 0.03934083506464958, -0.0032080765813589096, 0.05643218755722046, -0.0996730700135231, 0.09655547887086868, -0.07637670636177063, 0.006327940616756678, -0.12964461743831635, -0.3622942566871643, 0.04784655570983887, -0.1548573225736618, -0.11825442314147949, -0.049212317913770676, -0.12708695232868195, 0.12031801789999008, -0.006261458620429039, 0.14517731964588165, 0.09820917993783951, -0.11947016417980194, -0.010610712692141533, -0.05780487507581711, 0.020875342190265656, -0.12743790447711945, -0.3456540107727051, 0.018773125484585762, 0.10183046013116837, -0.11927046626806259, -0.08026492595672607, -0.061084598302841187, -0.009816453792154789, -0.02916703000664711, 0.14587700366973877, 0.11786606162786484, -0.1282753050327301, 0.06482645124197006, 0.013685094192624092, -0.0813770741224289, -0.10100525617599487, -0.6733686327934265, 0.0435369499027729, 0.12506292760372162, -0.06321587413549423, -0.09574680775403976, -0.26133885979652405, 0.02443171851336956, -0.11455696821212769, 0.013290448114275932, 0.12821465730667114, 0.07928259670734406, -0.05471938103437424, 0.09492260962724686, 0.015464629977941513, -0.23728959262371063, -0.6550013422966003, 0.03568166494369507, 0.4886340796947479, -0.3211071789264679, -0.007451574318110943, -0.23919348418712616, 0.030861711129546165, -0.14878466725349426, 0.10068794339895248, -0.0642184466123581, -0.18624579906463623, 0.09559380263090134, 0.1933824121952057, 0.0578850694000721, 0.13759732246398926, -0.5826084613800049, -0.0072203874588012695, 0.7951158285140991, -0.5815364122390747, 0.009493746794760227, -0.4699416756629944, -0.12082647532224655, -0.31411898136138916, 0.2311958372592926, -0.032613348215818405, -0.18868601322174072, -0.1770932525396347, 0.4671177864074707, 0.06042812392115593, 0.39957308769226074, -0.4494338035583496, 0.045203424990177155, 0.9275869131088257, -0.4010632038116455, 0.030261501669883728, -0.29393211007118225, 0.06213241443037987, 0.06555462628602982, 0.45378127694129944, -0.28528591990470886, -0.44204601645469666, -0.4914572536945343, 0.6419095993041992, 0.2193509340286255, 0.32120829820632935, -0.03263181075453758, 0.2010178565979004, 0.6465083360671997, -0.24919840693473816, -0.08791567385196686, -0.16518142819404602, -0.04636305198073387, -0.03080466389656067, 0.5490365624427795, -0.15735995769500732, -0.4113881587982178, -0.2683480679988861, 0.545637309551239, 0.2656593918800354, -0.02191959321498871, -0.03733976185321808, 0.12929728627204895, 0.0774422362446785, -0.0006437674164772034, -0.0921282097697258, 0.022671280428767204, 0.04213464632630348, -0.04799109324812889, 0.07143479585647583, -0.0555766262114048, -0.010592682287096977, -0.036099910736083984, 0.06428021937608719, 0.030185075476765633, -0.006468656472861767, -0.08619361370801926, -0.059780802577733994, 0.0010082945227622986, -0.045100465416908264, 0.08433189243078232, -0.03176548331975937, 0.10725447535514832, 0.04490052908658981, -0.018724534660577774, 0.16976012289524078, 0.06453515589237213, 0.08072509616613388, 0.04823986813426018, 0.04371466115117073, -0.09842271357774734, -0.07729211449623108, 0.10054288059473038, -0.0441143624484539, 