//Numpy array shape (15, 15)
//Min -1.832499623298645
//Max 1.4310373067855835
//Number of zeros 0

weight_default_t w2[225] = {-1.3721568584442139, 0.5495602488517761, -0.08776164054870605, 0.3342251777648926, 0.0035600471310317516, -0.3817415237426758, -0.141280859708786, -0.5663832426071167, -0.21923865377902985, 0.6126471161842346, 0.038827065378427505, 0.3474652171134949, 0.7170143127441406, -0.359447717666626, -0.237280935049057, -0.8173141479492188, 0.582827091217041, 0.9632932543754578, -0.6269143223762512, 0.49013060331344604, 0.019164996221661568, 1.275507926940918, -1.7389029264450073, -0.18603584170341492, 0.05152609199285507, -0.4549536406993866, 0.09163473546504974, -0.2439649999141693, -0.7487097382545471, -0.006208070088177919, 0.14200301468372345, 0.07224223017692566, -0.39155301451683044, 0.10476627200841904, -0.01853797398507595, -0.04294212907552719, -0.03590526804327965, 0.017950603738427162, 0.5348919034004211, -0.2973302900791168, 1.0576733350753784, 0.15138188004493713, 0.1985129415988922, 0.14532949030399323, 0.05714823305606842, 0.07418294250965118, 0.46657347679138184, -0.09307525306940079, -0.962287425994873, 0.45735880732536316, -0.13602174818515778, 1.2544443607330322, 0.5633949637413025, -0.11736365407705307, -0.08493643254041672, -0.059034962207078934, 0.9271660447120667, -0.5880253911018372, -0.5554766654968262, 0.0735103115439415, 0.10133142024278641, 0.2778996229171753, 0.46466290950775146, -0.5625168085098267, -1.0116560459136963, 0.005800996441394091, 0.10563550889492035, 0.5559017062187195, 0.6331809163093567, -0.31279879808425903, -0.2813252806663513, -0.16681568324565887, -0.7102017998695374, -1.187147855758667, -0.23639412224292755, 0.6618070602416992, -0.8545822501182556, 0.6034793853759766, -0.8412222266197205, -0.9841141700744629, 0.3730899691581726, -0.024507639929652214, 1.1632558107376099, 0.010268845595419407, 1.4310373067855835, 0.003564990358427167, -1.0844074487686157, 0.006126725114881992, -0.04928915947675705, -0.12188569456338882, -0.13838839530944824, 0.7754825353622437, -0.19116409122943878, 0.2600249648094177, -0.8385219573974609, -0.05528213083744049, 0.08873280137777328, 0.23295514285564423, 1.3999019861221313, -0.8662161231040955, 0.39381036162376404, -0.19729368388652802, 0.1498027890920639, -0.6726399064064026, 0.04231908172369003, -0.755699872970581, -0.3585774600505829, 1.0419853925704956, -0.527906060218811, -0.9912830591201782, -0.8382745981216431, -0.6583070158958435, 0.48892584443092346, 0.605398952960968, 0.3667149841785431, 0.9309546947479248, -1.2041025161743164, 0.4507264792919159, 0.9351485967636108, 0.49843084812164307, 0.13208210468292236, -0.9341320991516113, 0.5764061808586121, -0.9134957194328308, -0.6686168909072876, -0.035546693950891495, 0.03142306208610535, 0.5039771795272827, -0.0560179241001606, 1.3189034461975098, 0.0883992537856102, -0.829035758972168, 0.01300952397286892, 0.13177050650119781, 0.5183744430541992, -1.7641444206237793, -0.014725722372531891, 1.3202944993972778, 0.15386757254600525, 0.40328407287597656, -0.8352423906326294, -0.17656753957271576, -0.013118507340550423, -0.14124548435211182, 0.000651704496704042, -0.06545592099428177, -0.07200171053409576, 0.4942588806152344, 0.011975890956819057, -0.5060179829597473, -1.832499623298645, 0.07546248286962509, 0.3467330038547516, 0.35938388109207153, -0.03990815952420235, 0.030346175655722618, -0.9130372405052185, 0.00248923571780324, 0.016805076971650124, -0.16154466569423676, -0.028960200026631355, -0.5671358704566956, 0.7436565160751343, 0.38331466913223267, -0.04989498853683472, -0.09061727672815323, 0.13800041377544403, 0.39550018310546875, 0.08256227523088455, -0.2531619966030121, 0.5596811771392822, -0.18261758983135223, -0.11047020554542542, 0.3120318055152893, -0.06410730630159378, -0.1634385883808136, -0.5422863364219666, -0.03381459787487984, -1.087348222732544, -0.8659288883209229, -0.12229631096124649, 0.004648822359740734, 0.2544627785682678, 0.15545818209648132, 0.11195635050535202, 0.6713339686393738, 0.388718843460083, -0.7175770401954651, -0.052130814641714096, -0.0847562924027443, -0.014442730695009232, -0.12287542223930359, -0.13505356013774872, 0.48281368613243103, 0.05758925527334213, 0.16559931635856628, -0.12032569944858551, -0.02670714445412159, -0.44248300790786743, 0.5757966637611389, 0.5642713308334351, 0.45858514308929443, -0.2506863474845886, 0.2521149516105652, 0.27014291286468506, -0.04102560505270958, 0.3722551167011261, -0.31234389543533325, 0.0032799348700791597, -0.20477697253227234, 0.2480795979499817, 0.35891881585121155, -0.09205398708581924, -1.0651307106018066, -0.09905260801315308, -0.07352865487337112, 0.09031211584806442, -0.004761192947626114, -0.16982074081897736, 0.7533426880836487, 0.06309370696544647, 0.33256933093070984, 0.172398179769516, 0.006656135898083448, 1.0604010820388794};
