//Numpy array shape (15, 10)
//Min -3.95363187789917
//Max 0.5561795234680176
//Number of zeros 0

weight_default_t w3[150] = {-0.963013231754303, 0.5132195949554443, -0.8741535544395447, -0.2168823480606079, 0.5002545118331909, -0.981635332107544, -1.478576421737671, -0.2458980530500412, 0.15237490832805634, 0.4434632360935211, -1.5825552940368652, 0.15898750722408295, 0.31219080090522766, 0.2076675146818161, -0.8957583904266357, 0.14033189415931702, 0.3719039559364319, -0.9925517439842224, -0.9006049036979675, -1.41018545627594, 0.38078656792640686, -2.049168348312378, 0.0028216494247317314, -0.8305634260177612, 0.24933096766471863, 0.2775118350982666, 0.4092123806476593, 0.2858425974845886, -0.5546074509620667, 0.11683247238397598, 0.41764765977859497, -1.3965013027191162, 0.4193836748600006, 0.02106720395386219, -1.3447242975234985, -1.2383952140808105, -0.6236106753349304, -1.0392837524414062, -0.9308616518974304, -1.6069347858428955, 0.231368288397789, -1.51567804813385, -1.3811099529266357, -0.8983428478240967, -1.5899767875671387, 0.2960227429866791, -0.30360090732574463, -1.4867502450942993, 0.17282509803771973, -1.024871587753296, 0.08216260373592377, -2.4951794147491455, 0.07866310328245163, -0.8550510406494141, 0.2222917526960373, -0.30504530668258667, 0.3284425437450409, -1.0510979890823364, 0.08323114365339279, 0.09167135506868362, -0.23413397371768951, 0.2306196689605713, -0.9409931302070618, -0.9105800986289978, -0.7520694732666016, 0.4699097275733948, 0.4970027208328247, -1.8431620597839355, 0.27906280755996704, 0.056582432240247726, -2.391343832015991, 0.4498184621334076, -0.41249701380729675, -1.4457948207855225, 0.5561795234680176, -0.24102558195590973, -0.4648118019104004, 0.4745168387889862, -1.0583230257034302, 0.35322150588035583, -1.296054482460022, 0.3071655035018921, 0.3916093409061432, -0.20022892951965332, 0.1548822969198227, -0.6072068810462952, 0.37666964530944824, 0.12562784552574158, 0.07165037840604782, -1.9219436645507812, -1.6243878602981567, -0.8203889727592468, -0.2240515649318695, 0.30839696526527405, 0.35212695598602295, 0.2147166132926941, -1.8263063430786133, 0.35481587052345276, -0.4171673059463501, 0.3893018066883087, -1.5434693098068237, 0.21878379583358765, 0.3034416437149048, 0.0360647477209568, -2.294597864151001, -0.9161691069602966, -1.1346122026443481, 0.30369576811790466, 0.2257443517446518, -0.3381916582584381, -1.5428184270858765, 0.2940092980861664, -0.5981199741363525, 0.3600204586982727, -1.435730218887329, 0.43806806206703186, -0.8484296202659607, -1.1005642414093018, 0.3272866904735565, -0.6497160792350769, 0.4004761576652527, -0.6696664094924927, 0.4002746641635895, 0.35876211524009705, -1.7474812269210815, 0.11252269893884659, -1.154792308807373, 0.2693239450454712, -0.5115136504173279, -0.6577024459838867, 0.33065104484558105, -2.071838140487671, -0.17503775656223297, -0.32570508122444153, -1.3218920230865479, -0.6429116725921631, -0.669484555721283, 0.2333352267742157, 0.06103309243917465, 0.1377856731414795, -2.281895399093628, -0.2886982262134552, -1.545707106590271, 0.23481059074401855, -1.0469250679016113, -0.24684858322143555, -3.95363187789917, 0.009335056878626347, -1.5750281810760498, 0.15271632373332977};
